digraph Tree {
node [shape=box] ;
0 [label="X[7] <= 21.0\nmse = 282.451\nsamples = 772\nvalue = 35.504"] ;
1 [label="X[0] <= 360.8\nmse = 159.235\nsamples = 248\nvalue = 23.131"] ;
0 -> 1 [labeldistance=2.5, labelangle=45, headlabel="True"] ;
2 [label="X[7] <= 10.5\nmse = 72.362\nsamples = 177\nvalue = 17.999"] ;
1 -> 2 ;
3 [label="X[0] <= 254.75\nmse = 39.233\nsamples = 132\nvalue = 14.78"] ;
2 -> 3 ;
4 [label="X[6] <= 683.45\nmse = 26.313\nsamples = 87\nvalue = 12.827"] ;
3 -> 4 ;
5 [label="X[5] <= 948.7\nmse = 3.532\nsamples = 3\nvalue = 24.533"] ;
4 -> 5 ;
6 [label="X[3] <= 206.85\nmse = 0.176\nsamples = 2\nvalue = 25.84"] ;
5 -> 6 ;
7 [label="mse = 0.0\nsamples = 1\nvalue = 25.42"] ;
6 -> 7 ;
8 [label="mse = -0.0\nsamples = 1\nvalue = 26.26"] ;
6 -> 8 ;
9 [label="mse = -0.0\nsamples = 1\nvalue = 21.92"] ;
5 -> 9 ;
10 [label="X[4] <= 6.45\nmse = 22.057\nsamples = 84\nvalue = 12.409"] ;
4 -> 10 ;
11 [label="X[0] <= 155.0\nmse = 15.993\nsamples = 60\nvalue = 11.007"] ;
10 -> 11 ;
12 [label="X[7] <= 5.0\nmse = 11.338\nsamples = 13\nvalue = 7.664"] ;
11 -> 12 ;
13 [label="X[1] <= 167.7\nmse = 2.98\nsamples = 7\nvalue = 5.39"] ;
12 -> 13 ;
14 [label="X[1] <= 157.7\nmse = 1.229\nsamples = 3\nvalue = 3.893"] ;
13 -> 14 ;
15 [label="X[6] <= 942.55\nmse = 0.011\nsamples = 2\nvalue = 4.675"] ;
14 -> 15 ;
16 [label="mse = 0.0\nsamples = 1\nvalue = 4.57"] ;
15 -> 16 ;
17 [label="mse = -0.0\nsamples = 1\nvalue = 4.78"] ;
15 -> 17 ;
18 [label="mse = -0.0\nsamples = 1\nvalue = 2.33"] ;
14 -> 18 ;
19 [label="X[6] <= 777.7\nmse = 1.354\nsamples = 4\nvalue = 6.513"] ;
13 -> 19 ;
20 [label="mse = 0.0\nsamples = 1\nvalue = 4.83"] ;
19 -> 20 ;
21 [label="X[0] <= 136.3\nmse = 0.547\nsamples = 3\nvalue = 7.073"] ;
19 -> 21 ;
22 [label="X[0] <= 124.5\nmse = 0.09\nsamples = 2\nvalue = 6.58"] ;
21 -> 22 ;
23 [label="mse = 0.0\nsamples = 1\nvalue = 6.28"] ;
22 -> 23 ;
24 [label="mse = -0.0\nsamples = 1\nvalue = 6.88"] ;
22 -> 24 ;
25 [label="mse = 0.0\nsamples = 1\nvalue = 8.06"] ;
21 -> 25 ;
26 [label="X[1] <= 206.45\nmse = 8.018\nsamples = 6\nvalue = 10.317"] ;
12 -> 26 ;
27 [label="X[0] <= 134.35\nmse = 5.239\nsamples = 5\nvalue = 9.462"] ;
26 -> 27 ;
28 [label="X[0] <= 124.5\nmse = 6.035\nsamples = 3\nvalue = 10.477"] ;
27 -> 28 ;
29 [label="X[5] <= 898.4\nmse = 1.452\nsamples = 2\nvalue = 8.885"] ;
28 -> 29 ;
30 [label="mse = 0.0\nsamples = 1\nvalue = 7.68"] ;
29 -> 30 ;
31 [label="mse = 0.0\nsamples = 1\nvalue = 10.09"] ;
29 -> 31 ;
32 [label="mse = -0.0\nsamples = 1\nvalue = 13.66"] ;
28 -> 32 ;
33 [label="X[6] <= 851.2\nmse = 0.185\nsamples = 2\nvalue = 7.94"] ;
27 -> 33 ;
34 [label="mse = 0.0\nsamples = 1\nvalue = 7.51"] ;
33 -> 34 ;
35 [label="mse = 0.0\nsamples = 1\nvalue = 8.37"] ;
33 -> 35 ;
36 [label="mse = -0.0\nsamples = 1\nvalue = 14.59"] ;
26 -> 36 ;
37 [label="X[2] <= 168.1\nmse = 13.335\nsamples = 47\nvalue = 11.931"] ;
11 -> 37 ;
38 [label="X[7] <= 5.0\nmse = 11.68\nsamples = 46\nvalue = 11.728"] ;
37 -> 38 ;
39 [label="X[3] <= 196.75\nmse = 7.197\nsamples = 23\nvalue = 10.242"] ;
38 -> 39 ;
40 [label="X[6] <= 758.15\nmse = 5.959\nsamples = 17\nvalue = 11.063"] ;
39 -> 40 ;
41 [label="X[5] <= 1036.0\nmse = 0.309\nsamples = 5\nvalue = 12.964"] ;
40 -> 41 ;
42 [label="X[0] <= 210.85\nmse = 0.084\nsamples = 4\nvalue = 13.21"] ;
41 -> 42 ;
43 [label="mse = 0.0\nsamples = 1\nvalue = 12.79"] ;
42 -> 43 ;
44 [label="X[3] <= 190.25\nmse = 0.034\nsamples = 3\nvalue = 13.35"] ;
42 -> 44 ;
45 [label="mse = 0.0\nsamples = 1\nvalue = 13.12"] ;
44 -> 45 ;
46 [label="X[6] <= 753.35\nmse = 0.011\nsamples = 2\nvalue = 13.465"] ;
44 -> 46 ;
47 [label="mse = 0.0\nsamples = 1\nvalue = 13.57"] ;
46 -> 47 ;
48 [label="mse = 0.0\nsamples = 1\nvalue = 13.36"] ;
46 -> 48 ;
49 [label="mse = -0.0\nsamples = 1\nvalue = 11.98"] ;
41 -> 49 ;
50 [label="X[3] <= 190.55\nmse = 6.18\nsamples = 12\nvalue = 10.271"] ;
40 -> 50 ;
51 [label="X[1] <= 21.05\nmse = 4.804\nsamples = 6\nvalue = 11.797"] ;
50 -> 51 ;
52 [label="X[5] <= 1058.1\nmse = 1.834\nsamples = 5\nvalue = 12.606"] ;
51 -> 52 ;
53 [label="X[3] <= 188.35\nmse = 1.228\nsamples = 4\nvalue = 13.067"] ;
52 -> 53 ;
54 [label="X[6] <= 820.25\nmse = 0.654\nsamples = 3\nvalue = 13.563"] ;
53 -> 54 ;
55 [label="mse = 0.0\nsamples = 1\nvalue = 12.47"] ;
54 -> 55 ;
56 [label="X[6] <= 881.05\nmse = 0.084\nsamples = 2\nvalue = 14.11"] ;
54 -> 56 ;
57 [label="mse = 0.0\nsamples = 1\nvalue = 13.82"] ;
56 -> 57 ;
58 [label="mse = 0.0\nsamples = 1\nvalue = 14.4"] ;
56 -> 58 ;
59 [label="mse = 0.0\nsamples = 1\nvalue = 11.58"] ;
53 -> 59 ;
60 [label="mse = 0.0\nsamples = 1\nvalue = 10.76"] ;
52 -> 60 ;
61 [label="mse = 0.0\nsamples = 1\nvalue = 7.75"] ;
51 -> 61 ;
62 [label="X[6] <= 841.15\nmse = 2.9\nsamples = 6\nvalue = 8.745"] ;
50 -> 62 ;
63 [label="X[1] <= 132.7\nmse = 0.879\nsamples = 3\nvalue = 10.19"] ;
62 -> 63 ;
64 [label="X[5] <= 1003.9\nmse = 0.203\nsamples = 2\nvalue = 9.58"] ;
63 -> 64 ;
65 [label="mse = 0.0\nsamples = 1\nvalue = 9.13"] ;
64 -> 65 ;
66 [label="mse = 0.0\nsamples = 1\nvalue = 10.03"] ;
64 -> 66 ;
67 [label="mse = 0.0\nsamples = 1\nvalue = 11.41"] ;
63 -> 67 ;
68 [label="X[0] <= 243.0\nmse = 0.745\nsamples = 3\nvalue = 7.3"] ;
62 -> 68 ;
69 [label="X[6] <= 870.9\nmse = 0.055\nsamples = 2\nvalue = 6.705"] ;
68 -> 69 ;
70 [label="mse = 0.0\nsamples = 1\nvalue = 6.94"] ;
69 -> 70 ;
71 [label="mse = -0.0\nsamples = 1\nvalue = 6.47"] ;
69 -> 71 ;
72 [label="mse = 0.0\nsamples = 1\nvalue = 8.49"] ;
68 -> 72 ;
73 [label="X[0] <= 192.95\nmse = 3.388\nsamples = 6\nvalue = 7.917"] ;
39 -> 73 ;
74 [label="X[1] <= 186.4\nmse = 1.0\nsamples = 2\nvalue = 5.9"] ;
73 -> 74 ;
75 [label="mse = 0.0\nsamples = 1\nvalue = 4.9"] ;
74 -> 75 ;
76 [label="mse = -0.0\nsamples = 1\nvalue = 6.9"] ;
74 -> 76 ;
77 [label="X[1] <= 76.15\nmse = 1.531\nsamples = 4\nvalue = 8.925"] ;
73 -> 77 ;
78 [label="X[3] <= 202.0\nmse = 0.073\nsamples = 2\nvalue = 9.58"] ;
77 -> 78 ;
79 [label="mse = 0.0\nsamples = 1\nvalue = 9.31"] ;
78 -> 79 ;
80 [label="mse = 0.0\nsamples = 1\nvalue = 9.85"] ;
78 -> 80 ;
81 [label="X[5] <= 975.5\nmse = 2.132\nsamples = 2\nvalue = 8.27"] ;
77 -> 81 ;
82 [label="mse = 0.0\nsamples = 1\nvalue = 6.81"] ;
81 -> 82 ;
83 [label="mse = 0.0\nsamples = 1\nvalue = 9.73"] ;
81 -> 83 ;
84 [label="X[6] <= 720.2\nmse = 11.747\nsamples = 23\nvalue = 13.214"] ;
38 -> 84 ;
85 [label="X[0] <= 186.95\nmse = 11.407\nsamples = 4\nvalue = 17.6"] ;
84 -> 85 ;
86 [label="mse = 0.0\nsamples = 1\nvalue = 12.37"] ;
85 -> 86 ;
87 [label="X[3] <= 188.85\nmse = 3.053\nsamples = 3\nvalue = 19.343"] ;
85 -> 87 ;
88 [label="mse = 0.0\nsamples = 1\nvalue = 17.2"] ;
87 -> 88 ;
89 [label="X[6] <= 705.1\nmse = 1.134\nsamples = 2\nvalue = 20.415"] ;
87 -> 89 ;
90 [label="mse = 0.0\nsamples = 1\nvalue = 19.35"] ;
89 -> 90 ;
91 [label="mse = 0.0\nsamples = 1\nvalue = 21.48"] ;
89 -> 91 ;
92 [label="X[1] <= 128.25\nmse = 6.916\nsamples = 19\nvalue = 12.291"] ;
84 -> 92 ;
93 [label="X[0] <= 201.0\nmse = 3.963\nsamples = 12\nvalue = 11.308"] ;
92 -> 93 ;
94 [label="X[5] <= 1021.3\nmse = 2.56\nsamples = 4\nvalue = 9.505"] ;
93 -> 94 ;
95 [label="X[0] <= 178.45\nmse = 0.09\nsamples = 2\nvalue = 11.09"] ;
94 -> 95 ;
96 [label="mse = 0.0\nsamples = 1\nvalue = 11.39"] ;
95 -> 96 ;
97 [label="mse = 0.0\nsamples = 1\nvalue = 10.79"] ;
95 -> 97 ;
98 [label="X[1] <= 62.05\nmse = 0.006\nsamples = 2\nvalue = 7.92"] ;
94 -> 98 ;
99 [label="mse = 0.0\nsamples = 1\nvalue = 7.84"] ;
98 -> 99 ;
100 [label="mse = 0.0\nsamples = 1\nvalue = 8.0"] ;
98 -> 100 ;
101 [label="X[2] <= 70.5\nmse = 2.227\nsamples = 8\nvalue = 12.209"] ;
93 -> 101 ;
102 [label="X[0] <= 237.0\nmse = 1.209\nsamples = 7\nvalue = 11.8"] ;
101 -> 102 ;
103 [label="X[5] <= 1040.5\nmse = 0.348\nsamples = 2\nvalue = 10.58"] ;
102 -> 103 ;
104 [label="mse = 0.0\nsamples = 1\nvalue = 9.99"] ;
103 -> 104 ;
105 [label="mse = 0.0\nsamples = 1\nvalue = 11.17"] ;
103 -> 105 ;
106 [label="X[3] <= 185.35\nmse = 0.719\nsamples = 5\nvalue = 12.288"] ;
102 -> 106 ;
107 [label="X[6] <= 802.0\nmse = 0.24\nsamples = 2\nvalue = 13.22"] ;
106 -> 107 ;
108 [label="mse = 0.0\nsamples = 1\nvalue = 13.71"] ;
107 -> 108 ;
109 [label="mse = 0.0\nsamples = 1\nvalue = 12.73"] ;
107 -> 109 ;
110 [label="X[0] <= 245.0\nmse = 0.073\nsamples = 3\nvalue = 11.667"] ;
106 -> 110 ;
111 [label="mse = 0.0\nsamples = 1\nvalue = 12.05"] ;
110 -> 111 ;
112 [label="X[3] <= 185.85\nmse = 0.0\nsamples = 2\nvalue = 11.475"] ;
110 -> 112 ;
113 [label="mse = 0.0\nsamples = 1\nvalue = 11.48"] ;
112 -> 113 ;
114 [label="mse = -0.0\nsamples = 1\nvalue = 11.47"] ;
112 -> 114 ;
115 [label="mse = -0.0\nsamples = 1\nvalue = 15.07"] ;
101 -> 115 ;
116 [label="X[6] <= 762.75\nmse = 7.481\nsamples = 7\nvalue = 13.976"] ;
92 -> 116 ;
117 [label="X[0] <= 195.55\nmse = 5.441\nsamples = 4\nvalue = 12.282"] ;
116 -> 117 ;
118 [label="X[0] <= 164.55\nmse = 0.308\nsamples = 2\nvalue = 10.175"] ;
117 -> 118 ;
119 [label="mse = 0.0\nsamples = 1\nvalue = 9.62"] ;
118 -> 119 ;
120 [label="mse = -0.0\nsamples = 1\nvalue = 10.73"] ;
118 -> 120 ;
121 [label="X[1] <= 153.0\nmse = 1.69\nsamples = 2\nvalue = 14.39"] ;
117 -> 121 ;
122 [label="mse = 0.0\nsamples = 1\nvalue = 13.09"] ;
121 -> 122 ;
123 [label="mse = -0.0\nsamples = 1\nvalue = 15.69"] ;
121 -> 123 ;
124 [label="X[5] <= 971.9\nmse = 1.282\nsamples = 3\nvalue = 16.233"] ;
116 -> 124 ;
125 [label="X[5] <= 950.4\nmse = 0.02\nsamples = 2\nvalue = 17.03"] ;
124 -> 125 ;
126 [label="mse = 0.0\nsamples = 1\nvalue = 16.89"] ;
125 -> 126 ;
127 [label="mse = 0.0\nsamples = 1\nvalue = 17.17"] ;
125 -> 127 ;
128 [label="mse = 0.0\nsamples = 1\nvalue = 14.64"] ;
124 -> 128 ;
129 [label="mse = 0.0\nsamples = 1\nvalue = 21.29"] ;
37 -> 129 ;
130 [label="X[3] <= 150.45\nmse = 20.015\nsamples = 24\nvalue = 15.914"] ;
10 -> 130 ;
131 [label="X[6] <= 840.85\nmse = 7.952\nsamples = 2\nvalue = 24.6"] ;
130 -> 131 ;
132 [label="mse = 0.0\nsamples = 1\nvalue = 27.42"] ;
131 -> 132 ;
133 [label="mse = 0.0\nsamples = 1\nvalue = 21.78"] ;
131 -> 133 ;
134 [label="X[4] <= 6.6\nmse = 13.63\nsamples = 22\nvalue = 15.125"] ;
130 -> 134 ;
135 [label="mse = 0.0\nsamples = 1\nvalue = 23.08"] ;
134 -> 135 ;
136 [label="X[0] <= 203.35\nmse = 11.122\nsamples = 21\nvalue = 14.746"] ;
134 -> 136 ;
137 [label="X[2] <= 125.3\nmse = 14.068\nsamples = 10\nvalue = 13.071"] ;
136 -> 137 ;
138 [label="X[6] <= 852.2\nmse = 3.917\nsamples = 4\nvalue = 9.088"] ;
137 -> 138 ;
139 [label="X[5] <= 1084.45\nmse = 0.972\nsamples = 3\nvalue = 8.057"] ;
138 -> 139 ;
140 [label="X[6] <= 788.45\nmse = 0.002\nsamples = 2\nvalue = 7.36"] ;
139 -> 140 ;
141 [label="mse = 0.0\nsamples = 1\nvalue = 7.32"] ;
140 -> 141 ;
142 [label="mse = 0.0\nsamples = 1\nvalue = 7.4"] ;
140 -> 142 ;
143 [label="mse = 0.0\nsamples = 1\nvalue = 9.45"] ;
139 -> 143 ;
144 [label="mse = 0.0\nsamples = 1\nvalue = 12.18"] ;
138 -> 144 ;
145 [label="X[0] <= 166.0\nmse = 3.203\nsamples = 6\nvalue = 15.727"] ;
137 -> 145 ;
146 [label="mse = 0.0\nsamples = 1\nvalue = 19.42"] ;
145 -> 146 ;
147 [label="X[4] <= 7.7\nmse = 0.57\nsamples = 5\nvalue = 14.988"] ;
145 -> 147 ;
148 [label="mse = 0.0\nsamples = 1\nvalue = 13.62"] ;
147 -> 148 ;
149 [label="X[2] <= 144.25\nmse = 0.128\nsamples = 4\nvalue = 15.33"] ;
147 -> 149 ;
150 [label="X[3] <= 168.8\nmse = 0.003\nsamples = 2\nvalue = 14.99"] ;
149 -> 150 ;
151 [label="mse = 0.0\nsamples = 1\nvalue = 15.04"] ;
150 -> 151 ;
152 [label="mse = 0.0\nsamples = 1\nvalue = 14.94"] ;
150 -> 152 ;
153 [label="X[0] <= 170.4\nmse = 0.023\nsamples = 2\nvalue = 15.67"] ;
149 -> 153 ;
154 [label="mse = 0.0\nsamples = 1\nvalue = 15.52"] ;
153 -> 154 ;
155 [label="mse = -0.0\nsamples = 1\nvalue = 15.82"] ;
153 -> 155 ;
156 [label="X[2] <= 121.75\nmse = 3.576\nsamples = 11\nvalue = 16.268"] ;
136 -> 156 ;
157 [label="X[6] <= 785.45\nmse = 2.943\nsamples = 5\nvalue = 15.104"] ;
156 -> 157 ;
158 [label="X[3] <= 177.85\nmse = 1.638\nsamples = 2\nvalue = 16.72"] ;
157 -> 158 ;
159 [label="mse = 0.0\nsamples = 1\nvalue = 15.44"] ;
158 -> 159 ;
160 [label="mse = 0.0\nsamples = 1\nvalue = 18.0"] ;
158 -> 160 ;
161 [label="X[5] <= 997.8\nmse = 0.91\nsamples = 3\nvalue = 14.027"] ;
157 -> 161 ;
162 [label="mse = 0.0\nsamples = 1\nvalue = 15.36"] ;
161 -> 162 ;
163 [label="X[2] <= 62.45\nmse = 0.032\nsamples = 2\nvalue = 13.36"] ;
161 -> 163 ;
164 [label="mse = 0.0\nsamples = 1\nvalue = 13.18"] ;
163 -> 164 ;
165 [label="mse = 0.0\nsamples = 1\nvalue = 13.54"] ;
163 -> 165 ;
166 [label="X[4] <= 10.75\nmse = 2.033\nsamples = 6\nvalue = 17.238"] ;
156 -> 166 ;
167 [label="X[0] <= 212.85\nmse = 0.695\nsamples = 3\nvalue = 18.37"] ;
166 -> 167 ;
168 [label="mse = 0.0\nsamples = 1\nvalue = 19.52"] ;
167 -> 168 ;
169 [label="X[2] <= 148.3\nmse = 0.051\nsamples = 2\nvalue = 17.795"] ;
167 -> 169 ;
170 [label="mse = 0.0\nsamples = 1\nvalue = 18.02"] ;
169 -> 170 ;
171 [label="mse = -0.0\nsamples = 1\nvalue = 17.57"] ;
169 -> 171 ;
172 [label="X[3] <= 156.55\nmse = 0.81\nsamples = 3\nvalue = 16.107"] ;
166 -> 172 ;
173 [label="mse = 0.0\nsamples = 1\nvalue = 17.37"] ;
172 -> 173 ;
174 [label="X[6] <= 783.4\nmse = 0.018\nsamples = 2\nvalue = 15.475"] ;
172 -> 174 ;
175 [label="mse = 0.0\nsamples = 1\nvalue = 15.61"] ;
174 -> 175 ;
176 [label="mse = 0.0\nsamples = 1\nvalue = 15.34"] ;
174 -> 176 ;
177 [label="X[3] <= 177.25\nmse = 42.582\nsamples = 45\nvalue = 18.556"] ;
3 -> 177 ;
178 [label="X[7] <= 5.0\nmse = 30.556\nsamples = 8\nvalue = 27.542"] ;
177 -> 178 ;
179 [label="X[6] <= 683.8\nmse = 3.98\nsamples = 6\nvalue = 24.54"] ;
178 -> 179 ;
180 [label="mse = 0.0\nsamples = 1\nvalue = 28.8"] ;
179 -> 180 ;
181 [label="X[4] <= 9.45\nmse = 0.421\nsamples = 5\nvalue = 23.688"] ;
179 -> 181 ;
182 [label="mse = 0.0\nsamples = 1\nvalue = 22.5"] ;
181 -> 182 ;
183 [label="X[2] <= 60.7\nmse = 0.085\nsamples = 4\nvalue = 23.985"] ;
181 -> 183 ;
184 [label="X[6] <= 779.75\nmse = 0.023\nsamples = 2\nvalue = 24.25"] ;
183 -> 184 ;
185 [label="mse = 0.0\nsamples = 1\nvalue = 24.1"] ;
184 -> 185 ;
186 [label="mse = 0.0\nsamples = 1\nvalue = 24.4"] ;
184 -> 186 ;
187 [label="X[4] <= 10.4\nmse = 0.006\nsamples = 2\nvalue = 23.72"] ;
183 -> 187 ;
188 [label="mse = 0.0\nsamples = 1\nvalue = 23.8"] ;
187 -> 188 ;
189 [label="mse = 0.0\nsamples = 1\nvalue = 23.64"] ;
187 -> 189 ;
190 [label="X[6] <= 779.75\nmse = 2.103\nsamples = 2\nvalue = 36.55"] ;
178 -> 190 ;
191 [label="mse = 0.0\nsamples = 1\nvalue = 35.1"] ;
190 -> 191 ;
192 [label="mse = 0.0\nsamples = 1\nvalue = 38.0"] ;
190 -> 192 ;
193 [label="X[6] <= 749.5\nmse = 23.944\nsamples = 37\nvalue = 16.613"] ;
177 -> 193 ;
194 [label="X[1] <= 156.4\nmse = 34.079\nsamples = 7\nvalue = 22.539"] ;
193 -> 194 ;
195 [label="X[1] <= 71.25\nmse = 0.116\nsamples = 2\nvalue = 30.62"] ;
194 -> 195 ;
196 [label="mse = 0.0\nsamples = 1\nvalue = 30.96"] ;
195 -> 196 ;
197 [label="mse = 0.0\nsamples = 1\nvalue = 30.28"] ;
195 -> 197 ;
198 [label="X[1] <= 198.5\nmse = 11.09\nsamples = 5\nvalue = 19.306"] ;
194 -> 198 ;
199 [label="X[1] <= 186.95\nmse = 5.523\nsamples = 4\nvalue = 20.598"] ;
198 -> 199 ;
200 [label="X[1] <= 176.1\nmse = 1.6\nsamples = 2\nvalue = 18.505"] ;
199 -> 200 ;
201 [label="mse = 0.0\nsamples = 1\nvalue = 17.24"] ;
200 -> 201 ;
202 [label="mse = 0.0\nsamples = 1\nvalue = 19.77"] ;
200 -> 202 ;
203 [label="X[0] <= 289.1\nmse = 0.689\nsamples = 2\nvalue = 22.69"] ;
199 -> 203 ;
204 [label="mse = 0.0\nsamples = 1\nvalue = 23.52"] ;
203 -> 204 ;
205 [label="mse = 0.0\nsamples = 1\nvalue = 21.86"] ;
203 -> 205 ;
206 [label="mse = -0.0\nsamples = 1\nvalue = 14.14"] ;
198 -> 206 ;
207 [label="X[7] <= 5.0\nmse = 11.474\nsamples = 30\nvalue = 15.23"] ;
193 -> 207 ;
208 [label="X[6] <= 827.5\nmse = 2.562\nsamples = 12\nvalue = 13.013"] ;
207 -> 208 ;
209 [label="X[5] <= 1001.5\nmse = 1.027\nsamples = 8\nvalue = 13.929"] ;
208 -> 209 ;
210 [label="X[3] <= 192.5\nmse = 0.135\nsamples = 5\nvalue = 13.24"] ;
209 -> 210 ;
211 [label="X[2] <= 70.5\nmse = 0.003\nsamples = 3\nvalue = 13.48"] ;
210 -> 211 ;
212 [label="mse = 0.0\nsamples = 2\nvalue = 13.52"] ;
211 -> 212 ;
213 [label="mse = -0.0\nsamples = 1\nvalue = 13.4"] ;
211 -> 213 ;
214 [label="X[6] <= 796.5\nmse = 0.116\nsamples = 2\nvalue = 12.88"] ;
210 -> 214 ;
215 [label="mse = 0.0\nsamples = 1\nvalue = 13.22"] ;
214 -> 215 ;
216 [label="mse = 0.0\nsamples = 1\nvalue = 12.54"] ;
214 -> 216 ;
217 [label="X[5] <= 1051.5\nmse = 0.406\nsamples = 3\nvalue = 15.077"] ;
209 -> 217 ;
218 [label="X[6] <= 813.95\nmse = 0.137\nsamples = 2\nvalue = 14.68"] ;
217 -> 218 ;
219 [label="mse = 0.0\nsamples = 1\nvalue = 15.05"] ;
218 -> 219 ;
220 [label="mse = 0.0\nsamples = 1\nvalue = 14.31"] ;
218 -> 220 ;
221 [label="mse = 0.0\nsamples = 1\nvalue = 15.87"] ;
217 -> 221 ;
222 [label="X[5] <= 991.5\nmse = 0.605\nsamples = 4\nvalue = 11.182"] ;
208 -> 222 ;
223 [label="X[6] <= 853.3\nmse = 0.608\nsamples = 3\nvalue = 10.96"] ;
222 -> 223 ;
224 [label="mse = 0.0\nsamples = 1\nvalue = 9.87"] ;
223 -> 224 ;
225 [label="X[3] <= 191.5\nmse = 0.021\nsamples = 2\nvalue = 11.505"] ;
223 -> 225 ;
226 [label="mse = 0.0\nsamples = 1\nvalue = 11.36"] ;
225 -> 226 ;
227 [label="mse = 0.0\nsamples = 1\nvalue = 11.65"] ;
225 -> 227 ;
228 [label="mse = -0.0\nsamples = 1\nvalue = 11.85"] ;
222 -> 228 ;
229 [label="X[5] <= 1053.0\nmse = 11.956\nsamples = 18\nvalue = 16.708"] ;
207 -> 229 ;
230 [label="X[6] <= 846.3\nmse = 10.36\nsamples = 9\nvalue = 18.573"] ;
229 -> 230 ;
231 [label="X[5] <= 952.6\nmse = 8.064\nsamples = 7\nvalue = 19.653"] ;
230 -> 231 ;
232 [label="X[4] <= 2.75\nmse = 0.133\nsamples = 2\nvalue = 23.765"] ;
231 -> 232 ;
233 [label="mse = 0.0\nsamples = 1\nvalue = 23.4"] ;
232 -> 233 ;
234 [label="mse = -0.0\nsamples = 1\nvalue = 24.13"] ;
232 -> 234 ;
235 [label="X[5] <= 1048.5\nmse = 1.767\nsamples = 5\nvalue = 18.008"] ;
231 -> 235 ;
236 [label="X[0] <= 340.0\nmse = 0.596\nsamples = 4\nvalue = 17.44"] ;
235 -> 236 ;
237 [label="X[6] <= 827.5\nmse = 0.24\nsamples = 2\nvalue = 16.75"] ;
236 -> 237 ;
238 [label="mse = 0.0\nsamples = 1\nvalue = 16.26"] ;
237 -> 238 ;
239 [label="mse = -0.0\nsamples = 1\nvalue = 17.24"] ;
237 -> 239 ;
240 [label="mse = -0.0\nsamples = 2\nvalue = 18.13"] ;
236 -> 240 ;
241 [label="mse = 0.0\nsamples = 1\nvalue = 20.28"] ;
235 -> 241 ;
242 [label="X[5] <= 941.6\nmse = 0.038\nsamples = 2\nvalue = 14.795"] ;
230 -> 242 ;
243 [label="mse = 0.0\nsamples = 1\nvalue = 14.6"] ;
242 -> 243 ;
244 [label="mse = -0.0\nsamples = 1\nvalue = 14.99"] ;
242 -> 244 ;
245 [label="X[0] <= 337.0\nmse = 6.592\nsamples = 9\nvalue = 14.842"] ;
229 -> 245 ;
246 [label="X[0] <= 295.9\nmse = 2.633\nsamples = 8\nvalue = 15.571"] ;
245 -> 246 ;
247 [label="X[0] <= 288.0\nmse = 0.067\nsamples = 4\nvalue = 14.585"] ;
246 -> 247 ;
248 [label="X[6] <= 791.0\nmse = 0.023\nsamples = 2\nvalue = 14.35"] ;
247 -> 248 ;
249 [label="mse = 0.0\nsamples = 1\nvalue = 14.5"] ;
248 -> 249 ;
250 [label="mse = 0.0\nsamples = 1\nvalue = 14.2"] ;
248 -> 250 ;
251 [label="X[6] <= 769.15\nmse = 0.0\nsamples = 2\nvalue = 14.82"] ;
247 -> 251 ;
252 [label="mse = 0.0\nsamples = 1\nvalue = 14.8"] ;
251 -> 252 ;
253 [label="mse = 0.0\nsamples = 1\nvalue = 14.84"] ;
251 -> 253 ;
254 [label="X[6] <= 767.0\nmse = 3.253\nsamples = 4\nvalue = 16.558"] ;
246 -> 254 ;
255 [label="mse = 0.0\nsamples = 1\nvalue = 14.2"] ;
254 -> 255 ;
256 [label="X[6] <= 789.0\nmse = 1.867\nsamples = 3\nvalue = 17.343"] ;
254 -> 256 ;
257 [label="X[3] <= 185.0\nmse = 0.469\nsamples = 2\nvalue = 18.225"] ;
256 -> 257 ;
258 [label="mse = 0.0\nsamples = 1\nvalue = 17.54"] ;
257 -> 258 ;
259 [label="mse = -0.0\nsamples = 1\nvalue = 18.91"] ;
257 -> 259 ;
260 [label="mse = 0.0\nsamples = 1\nvalue = 15.58"] ;
256 -> 260 ;
261 [label="mse = -0.0\nsamples = 1\nvalue = 9.01"] ;
245 -> 261 ;
262 [label="X[4] <= 11.75\nmse = 49.949\nsamples = 45\nvalue = 27.443"] ;
2 -> 262 ;
263 [label="X[3] <= 190.15\nmse = 35.178\nsamples = 40\nvalue = 25.981"] ;
262 -> 263 ;
264 [label="X[5] <= 1054.6\nmse = 30.993\nsamples = 30\nvalue = 27.713"] ;
263 -> 264 ;
265 [label="X[2] <= 118.45\nmse = 21.639\nsamples = 18\nvalue = 30.386"] ;
264 -> 265 ;
266 [label="X[0] <= 270.9\nmse = 11.998\nsamples = 8\nvalue = 26.718"] ;
265 -> 266 ;
267 [label="X[0] <= 250.7\nmse = 3.386\nsamples = 7\nvalue = 25.581"] ;
266 -> 267 ;
268 [label="X[2] <= 94.9\nmse = 0.285\nsamples = 5\nvalue = 24.942"] ;
267 -> 268 ;
269 [label="mse = 0.0\nsamples = 1\nvalue = 25.69"] ;
268 -> 269 ;
270 [label="X[6] <= 902.8\nmse = 0.181\nsamples = 4\nvalue = 24.755"] ;
268 -> 270 ;
271 [label="X[6] <= 865.75\nmse = 0.073\nsamples = 3\nvalue = 24.55"] ;
270 -> 271 ;
272 [label="mse = 0.0\nsamples = 1\nvalue = 24.92"] ;
271 -> 272 ;
273 [label="X[6] <= 886.05\nmse = 0.007\nsamples = 2\nvalue = 24.365"] ;
271 -> 273 ;
274 [label="mse = 0.0\nsamples = 1\nvalue = 24.45"] ;
273 -> 274 ;
275 [label="mse = -0.0\nsamples = 1\nvalue = 24.28"] ;
273 -> 275 ;
276 [label="mse = 0.0\nsamples = 1\nvalue = 25.37"] ;
270 -> 276 ;
277 [label="X[4] <= 6.1\nmse = 7.562\nsamples = 2\nvalue = 27.18"] ;
267 -> 277 ;
278 [label="mse = 0.0\nsamples = 1\nvalue = 29.93"] ;
277 -> 278 ;
279 [label="mse = 0.0\nsamples = 1\nvalue = 24.43"] ;
277 -> 279 ;
280 [label="mse = -0.0\nsamples = 1\nvalue = 34.67"] ;
266 -> 280 ;
281 [label="X[0] <= 214.2\nmse = 9.977\nsamples = 10\nvalue = 33.32"] ;
265 -> 281 ;
282 [label="X[3] <= 173.7\nmse = 3.474\nsamples = 8\nvalue = 31.979"] ;
281 -> 282 ;
283 [label="X[3] <= 155.7\nmse = 3.259\nsamples = 6\nvalue = 31.417"] ;
282 -> 283 ;
284 [label="mse = 0.0\nsamples = 1\nvalue = 33.7"] ;
283 -> 284 ;
285 [label="X[4] <= 8.8\nmse = 2.659\nsamples = 5\nvalue = 30.96"] ;
283 -> 285 ;
286 [label="X[4] <= 5.3\nmse = 2.285\nsamples = 3\nvalue = 31.887"] ;
285 -> 286 ;
287 [label="mse = 0.0\nsamples = 1\nvalue = 29.75"] ;
286 -> 287 ;
288 [label="X[4] <= 7.2\nmse = 0.003\nsamples = 2\nvalue = 32.955"] ;
286 -> 288 ;
289 [label="mse = 0.0\nsamples = 1\nvalue = 33.01"] ;
288 -> 289 ;
290 [label="mse = 0.0\nsamples = 1\nvalue = 32.9"] ;
288 -> 290 ;
291 [label="X[3] <= 165.75\nmse = 0.0\nsamples = 2\nvalue = 29.57"] ;
285 -> 291 ;
292 [label="mse = 0.0\nsamples = 1\nvalue = 29.59"] ;
291 -> 292 ;
293 [label="mse = -0.0\nsamples = 1\nvalue = 29.55"] ;
291 -> 293 ;
294 [label="X[3] <= 177.5\nmse = 0.331\nsamples = 2\nvalue = 33.665"] ;
282 -> 294 ;
295 [label="mse = 0.0\nsamples = 1\nvalue = 33.09"] ;
294 -> 295 ;
296 [label="mse = -0.0\nsamples = 1\nvalue = 34.24"] ;
294 -> 296 ;
297 [label="X[0] <= 245.0\nmse = 0.007\nsamples = 2\nvalue = 38.685"] ;
281 -> 297 ;
298 [label="mse = 0.0\nsamples = 1\nvalue = 38.6"] ;
297 -> 298 ;
299 [label="mse = -0.0\nsamples = 1\nvalue = 38.77"] ;
297 -> 299 ;
300 [label="X[0] <= 201.15\nmse = 18.239\nsamples = 12\nvalue = 23.704"] ;
264 -> 300 ;
301 [label="X[3] <= 140.05\nmse = 5.558\nsamples = 7\nvalue = 21.721"] ;
300 -> 301 ;
302 [label="mse = 0.0\nsamples = 1\nvalue = 17.82"] ;
301 -> 302 ;
303 [label="X[0] <= 175.15\nmse = 3.524\nsamples = 6\nvalue = 22.372"] ;
301 -> 303 ;
304 [label="X[2] <= 143.8\nmse = 0.97\nsamples = 2\nvalue = 24.495"] ;
303 -> 304 ;
305 [label="mse = 0.0\nsamples = 1\nvalue = 23.51"] ;
304 -> 305 ;
306 [label="mse = 0.0\nsamples = 1\nvalue = 25.48"] ;
304 -> 306 ;
307 [label="X[3] <= 164.25\nmse = 1.42\nsamples = 4\nvalue = 21.31"] ;
303 -> 307 ;
308 [label="mse = 0.0\nsamples = 1\nvalue = 22.72"] ;
307 -> 308 ;
309 [label="X[5] <= 1069.2\nmse = 1.01\nsamples = 3\nvalue = 20.84"] ;
307 -> 309 ;
310 [label="X[1] <= 22.6\nmse = 0.002\nsamples = 2\nvalue = 21.55"] ;
309 -> 310 ;
311 [label="mse = 0.0\nsamples = 1\nvalue = 21.6"] ;
310 -> 311 ;
312 [label="mse = 0.0\nsamples = 1\nvalue = 21.5"] ;
310 -> 312 ;
313 [label="mse = 0.0\nsamples = 1\nvalue = 19.42"] ;
309 -> 313 ;
314 [label="X[0] <= 213.75\nmse = 22.785\nsamples = 5\nvalue = 26.48"] ;
300 -> 314 ;
315 [label="X[5] <= 1075.6\nmse = 0.23\nsamples = 2\nvalue = 30.87"] ;
314 -> 315 ;
316 [label="mse = 0.0\nsamples = 1\nvalue = 30.39"] ;
315 -> 316 ;
317 [label="mse = 0.0\nsamples = 1\nvalue = 31.35"] ;
315 -> 317 ;
318 [label="X[3] <= 177.85\nmse = 16.407\nsamples = 3\nvalue = 23.553"] ;
314 -> 318 ;
319 [label="X[3] <= 166.25\nmse = 0.13\nsamples = 2\nvalue = 26.41"] ;
318 -> 319 ;
320 [label="mse = 0.0\nsamples = 1\nvalue = 26.05"] ;
319 -> 320 ;
321 [label="mse = 0.0\nsamples = 1\nvalue = 26.77"] ;
319 -> 321 ;
322 [label="mse = -0.0\nsamples = 1\nvalue = 17.84"] ;
318 -> 322 ;
323 [label="X[6] <= 870.5\nmse = 11.726\nsamples = 10\nvalue = 20.784"] ;
263 -> 323 ;
324 [label="X[0] <= 330.5\nmse = 5.238\nsamples = 9\nvalue = 21.667"] ;
323 -> 324 ;
325 [label="X[3] <= 200.45\nmse = 1.71\nsamples = 7\nvalue = 20.776"] ;
324 -> 325 ;
326 [label="X[5] <= 1028.75\nmse = 0.712\nsamples = 5\nvalue = 21.306"] ;
325 -> 326 ;
327 [label="X[0] <= 255.4\nmse = 0.214\nsamples = 3\nvalue = 21.907"] ;
326 -> 327 ;
328 [label="X[5] <= 987.55\nmse = 0.008\nsamples = 2\nvalue = 22.23"] ;
327 -> 328 ;
329 [label="mse = 0.0\nsamples = 1\nvalue = 22.14"] ;
328 -> 329 ;
330 [label="mse = 0.0\nsamples = 1\nvalue = 22.32"] ;
328 -> 330 ;
331 [label="mse = -0.0\nsamples = 1\nvalue = 21.26"] ;
327 -> 331 ;
332 [label="X[3] <= 194.2\nmse = 0.106\nsamples = 2\nvalue = 20.405"] ;
326 -> 332 ;
333 [label="mse = 0.0\nsamples = 1\nvalue = 20.73"] ;
332 -> 333 ;
334 [label="mse = -0.0\nsamples = 1\nvalue = 20.08"] ;
332 -> 334 ;
335 [label="X[0] <= 312.0\nmse = 1.742\nsamples = 2\nvalue = 19.45"] ;
325 -> 335 ;
336 [label="mse = 0.0\nsamples = 1\nvalue = 18.13"] ;
335 -> 336 ;
337 [label="mse = 0.0\nsamples = 1\nvalue = 20.77"] ;
335 -> 337 ;
338 [label="X[6] <= 778.0\nmse = 5.085\nsamples = 2\nvalue = 24.785"] ;
324 -> 338 ;
339 [label="mse = 0.0\nsamples = 1\nvalue = 22.53"] ;
338 -> 339 ;
340 [label="mse = -0.0\nsamples = 1\nvalue = 27.04"] ;
338 -> 340 ;
341 [label="mse = 0.0\nsamples = 1\nvalue = 12.84"] ;
323 -> 341 ;
342 [label="X[6] <= 894.4\nmse = 14.098\nsamples = 5\nvalue = 39.144"] ;
262 -> 342 ;
343 [label="X[1] <= 27.3\nmse = 7.168\nsamples = 4\nvalue = 40.59"] ;
342 -> 343 ;
344 [label="X[0] <= 264.7\nmse = 0.03\nsamples = 3\nvalue = 42.133"] ;
343 -> 344 ;
345 [label="X[2] <= 111.95\nmse = 0.001\nsamples = 2\nvalue = 42.255"] ;
344 -> 345 ;
346 [label="mse = 0.0\nsamples = 1\nvalue = 42.29"] ;
345 -> 346 ;
347 [label="mse = 0.0\nsamples = 1\nvalue = 42.22"] ;
345 -> 347 ;
348 [label="mse = 0.0\nsamples = 1\nvalue = 41.89"] ;
344 -> 348 ;
349 [label="mse = -0.0\nsamples = 1\nvalue = 35.96"] ;
343 -> 349 ;
350 [label="mse = 0.0\nsamples = 1\nvalue = 33.36"] ;
342 -> 350 ;
351 [label="X[3] <= 183.4\nmse = 146.538\nsamples = 71\nvalue = 35.923"] ;
1 -> 351 ;
352 [label="X[7] <= 5.0\nmse = 102.737\nsamples = 41\nvalue = 41.348"] ;
351 -> 352 ;
353 [label="X[2] <= 39.5\nmse = 33.875\nsamples = 19\nvalue = 33.622"] ;
352 -> 353 ;
354 [label="X[0] <= 388.4\nmse = 13.474\nsamples = 12\nvalue = 36.67"] ;
353 -> 354 ;
355 [label="X[1] <= 141.4\nmse = 5.31\nsamples = 6\nvalue = 34.1"] ;
354 -> 355 ;
356 [label="mse = 0.0\nsamples = 1\nvalue = 29.0"] ;
355 -> 356 ;
357 [label="X[6] <= 756.25\nmse = 0.13\nsamples = 5\nvalue = 35.12"] ;
355 -> 357 ;
358 [label="mse = -0.0\nsamples = 4\nvalue = 35.3"] ;
357 -> 358 ;
359 [label="mse = 0.0\nsamples = 1\nvalue = 34.4"] ;
357 -> 359 ;
360 [label="X[1] <= 100.5\nmse = 8.427\nsamples = 6\nvalue = 39.24"] ;
354 -> 360 ;
361 [label="X[4] <= 5.7\nmse = 0.05\nsamples = 3\nvalue = 41.347"] ;
360 -> 361 ;
362 [label="mse = 0.0\nsamples = 1\nvalue = 41.64"] ;
361 -> 362 ;
363 [label="X[5] <= 899.45\nmse = 0.01\nsamples = 2\nvalue = 41.2"] ;
361 -> 363 ;
364 [label="mse = 0.0\nsamples = 1\nvalue = 41.3"] ;
363 -> 364 ;
365 [label="mse = -0.0\nsamples = 1\nvalue = 41.1"] ;
363 -> 365 ;
366 [label="X[0] <= 447.0\nmse = 7.929\nsamples = 3\nvalue = 37.133"] ;
360 -> 366 ;
367 [label="mse = 0.0\nsamples = 1\nvalue = 33.4"] ;
366 -> 367 ;
368 [label="X[1] <= 118.0\nmse = 1.44\nsamples = 2\nvalue = 39.0"] ;
366 -> 368 ;
369 [label="mse = 0.0\nsamples = 1\nvalue = 40.2"] ;
368 -> 369 ;
370 [label="mse = 0.0\nsamples = 1\nvalue = 37.8"] ;
368 -> 370 ;
371 [label="X[4] <= 12.75\nmse = 25.607\nsamples = 7\nvalue = 28.396"] ;
353 -> 371 ;
372 [label="X[0] <= 435.0\nmse = 24.899\nsamples = 5\nvalue = 30.102"] ;
371 -> 372 ;
373 [label="X[5] <= 910.0\nmse = 1.904\nsamples = 2\nvalue = 33.39"] ;
372 -> 373 ;
374 [label="mse = 0.0\nsamples = 1\nvalue = 32.01"] ;
373 -> 374 ;
375 [label="mse = -0.0\nsamples = 1\nvalue = 34.77"] ;
373 -> 375 ;
376 [label="mse = 28.216\nsamples = 3\nvalue = 27.91"] ;
372 -> 376 ;
377 [label="X[4] <= 14.1\nmse = 1.904\nsamples = 2\nvalue = 24.13"] ;
371 -> 377 ;
378 [label="mse = 0.0\nsamples = 1\nvalue = 25.51"] ;
377 -> 378 ;
379 [label="mse = -0.0\nsamples = 1\nvalue = 22.75"] ;
377 -> 379 ;
380 [label="X[2] <= 39.5\nmse = 66.124\nsamples = 22\nvalue = 48.021"] ;
352 -> 380 ;
381 [label="X[0] <= 382.45\nmse = 68.24\nsamples = 16\nvalue = 49.973"] ;
380 -> 381 ;
382 [label="X[5] <= 935.4\nmse = 145.49\nsamples = 5\nvalue = 45.32"] ;
381 -> 382 ;
383 [label="X[1] <= 141.5\nmse = 0.062\nsamples = 2\nvalue = 45.95"] ;
382 -> 383 ;
384 [label="mse = 0.0\nsamples = 1\nvalue = 45.7"] ;
383 -> 384 ;
385 [label="mse = 0.0\nsamples = 1\nvalue = 46.2"] ;
383 -> 385 ;
386 [label="mse = 242.0\nsamples = 3\nvalue = 44.9"] ;
382 -> 386 ;
387 [label="X[6] <= 792.6\nmse = 18.812\nsamples = 11\nvalue = 52.088"] ;
381 -> 387 ;
388 [label="X[7] <= 10.5\nmse = 8.249\nsamples = 4\nvalue = 56.765"] ;
387 -> 388 ;
389 [label="X[4] <= 15.45\nmse = 7.012\nsamples = 3\nvalue = 55.767"] ;
388 -> 389 ;
390 [label="X[6] <= 697.25\nmse = 2.235\nsamples = 2\nvalue = 54.105"] ;
389 -> 390 ;
391 [label="mse = 0.0\nsamples = 1\nvalue = 52.61"] ;
390 -> 391 ;
392 [label="mse = -0.0\nsamples = 1\nvalue = 55.6"] ;
390 -> 392 ;
393 [label="mse = 0.0\nsamples = 1\nvalue = 59.09"] ;
389 -> 393 ;
394 [label="mse = 0.0\nsamples = 1\nvalue = 59.76"] ;
388 -> 394 ;
395 [label="X[5] <= 941.4\nmse = 5.207\nsamples = 7\nvalue = 49.416"] ;
387 -> 395 ;
396 [label="X[4] <= 17.55\nmse = 1.808\nsamples = 6\nvalue = 48.635"] ;
395 -> 396 ;
397 [label="X[0] <= 473.5\nmse = 0.322\nsamples = 4\nvalue = 49.528"] ;
396 -> 397 ;
398 [label="mse = -0.0\nsamples = 3\nvalue = 49.2"] ;
397 -> 398 ;
399 [label="mse = 0.0\nsamples = 1\nvalue = 50.51"] ;
397 -> 399 ;
400 [label="X[6] <= 848.7\nmse = 0.003\nsamples = 2\nvalue = 46.85"] ;
396 -> 400 ;
401 [label="mse = 0.0\nsamples = 1\nvalue = 46.8"] ;
400 -> 401 ;
402 [label="mse = 0.0\nsamples = 1\nvalue = 46.9"] ;
400 -> 402 ;
403 [label="mse = -0.0\nsamples = 1\nvalue = 54.1"] ;
395 -> 403 ;
404 [label="X[5] <= 880.0\nmse = 23.216\nsamples = 6\nvalue = 42.815"] ;
380 -> 404 ;
405 [label="X[4] <= 8.7\nmse = 0.416\nsamples = 2\nvalue = 39.645"] ;
404 -> 405 ;
406 [label="mse = 0.0\nsamples = 1\nvalue = 39.0"] ;
405 -> 406 ;
407 [label="mse = 0.0\nsamples = 1\nvalue = 40.29"] ;
405 -> 407 ;
408 [label="X[4] <= 12.75\nmse = 27.08\nsamples = 4\nvalue = 44.4"] ;
404 -> 408 ;
409 [label="X[5] <= 952.5\nmse = 35.106\nsamples = 3\nvalue = 43.9"] ;
408 -> 409 ;
410 [label="mse = 0.0\nsamples = 1\nvalue = 41.67"] ;
409 -> 410 ;
411 [label="mse = 48.93\nsamples = 2\nvalue = 45.015"] ;
409 -> 411 ;
412 [label="mse = -0.0\nsamples = 1\nvalue = 45.9"] ;
408 -> 412 ;
413 [label="X[6] <= 710.05\nmse = 111.191\nsamples = 30\nvalue = 28.508"] ;
351 -> 413 ;
414 [label="X[3] <= 194.5\nmse = 63.09\nsamples = 13\nvalue = 37.456"] ;
413 -> 414 ;
415 [label="X[7] <= 5.0\nmse = 58.879\nsamples = 5\nvalue = 44.004"] ;
414 -> 415 ;
416 [label="X[5] <= 1004.95\nmse = 7.562\nsamples = 2\nvalue = 36.55"] ;
415 -> 416 ;
417 [label="mse = 0.0\nsamples = 1\nvalue = 39.3"] ;
416 -> 417 ;
418 [label="mse = -0.0\nsamples = 1\nvalue = 33.8"] ;
416 -> 418 ;
419 [label="X[0] <= 482.0\nmse = 31.355\nsamples = 3\nvalue = 48.973"] ;
415 -> 419 ;
420 [label="mse = 0.0\nsamples = 1\nvalue = 56.1"] ;
419 -> 420 ;
421 [label="X[7] <= 10.5\nmse = 8.94\nsamples = 2\nvalue = 45.41"] ;
419 -> 421 ;
422 [label="mse = 0.0\nsamples = 1\nvalue = 42.42"] ;
421 -> 422 ;
423 [label="mse = 0.0\nsamples = 1\nvalue = 48.4"] ;
421 -> 423 ;
424 [label="X[7] <= 5.0\nmse = 22.177\nsamples = 8\nvalue = 33.364"] ;
414 -> 424 ;
425 [label="X[3] <= 205.0\nmse = 0.051\nsamples = 2\nvalue = 25.835"] ;
424 -> 425 ;
426 [label="mse = 0.0\nsamples = 1\nvalue = 26.06"] ;
425 -> 426 ;
427 [label="mse = -0.0\nsamples = 1\nvalue = 25.61"] ;
425 -> 427 ;
428 [label="X[5] <= 852.0\nmse = 4.361\nsamples = 6\nvalue = 35.873"] ;
424 -> 428 ;
429 [label="mse = 0.0\nsamples = 1\nvalue = 37.92"] ;
428 -> 429 ;
430 [label="X[3] <= 219.0\nmse = 4.228\nsamples = 5\nvalue = 35.464"] ;
428 -> 430 ;
431 [label="X[7] <= 10.5\nmse = 2.877\nsamples = 3\nvalue = 34.547"] ;
430 -> 431 ;
432 [label="X[4] <= 1.95\nmse = 0.02\nsamples = 2\nvalue = 33.35"] ;
431 -> 432 ;
433 [label="mse = 0.0\nsamples = 1\nvalue = 33.21"] ;
432 -> 433 ;
434 [label="mse = -0.0\nsamples = 1\nvalue = 33.49"] ;
432 -> 434 ;
435 [label="mse = 0.0\nsamples = 1\nvalue = 36.94"] ;
431 -> 435 ;
436 [label="X[0] <= 451.25\nmse = 3.098\nsamples = 2\nvalue = 36.84"] ;
430 -> 436 ;
437 [label="mse = 0.0\nsamples = 1\nvalue = 35.08"] ;
436 -> 437 ;
438 [label="mse = -0.0\nsamples = 1\nvalue = 38.6"] ;
436 -> 438 ;
439 [label="X[7] <= 2.0\nmse = 39.913\nsamples = 17\nvalue = 21.665"] ;
413 -> 439 ;
440 [label="mse = 0.0\nsamples = 1\nvalue = 6.27"] ;
439 -> 440 ;
441 [label="X[5] <= 1076.2\nmse = 26.67\nsamples = 16\nvalue = 22.627"] ;
439 -> 441 ;
442 [label="X[7] <= 5.0\nmse = 15.028\nsamples = 14\nvalue = 24.001"] ;
441 -> 442 ;
443 [label="X[6] <= 739.5\nmse = 13.501\nsamples = 5\nvalue = 20.36"] ;
442 -> 443 ;
444 [label="X[5] <= 936.1\nmse = 0.0\nsamples = 2\nvalue = 24.395"] ;
443 -> 444 ;
445 [label="mse = 0.0\nsamples = 1\nvalue = 24.39"] ;
444 -> 445 ;
446 [label="mse = 0.0\nsamples = 1\nvalue = 24.4"] ;
444 -> 446 ;
447 [label="X[5] <= 953.3\nmse = 4.412\nsamples = 3\nvalue = 17.67"] ;
443 -> 447 ;
448 [label="X[6] <= 771.8\nmse = 0.002\nsamples = 2\nvalue = 19.155"] ;
447 -> 448 ;
449 [label="mse = 0.0\nsamples = 1\nvalue = 19.11"] ;
448 -> 449 ;
450 [label="mse = -0.0\nsamples = 1\nvalue = 19.2"] ;
448 -> 450 ;
451 [label="mse = -0.0\nsamples = 1\nvalue = 14.7"] ;
447 -> 451 ;
452 [label="X[0] <= 398.5\nmse = 4.417\nsamples = 9\nvalue = 26.024"] ;
442 -> 452 ;
453 [label="X[5] <= 1043.8\nmse = 2.587\nsamples = 8\nvalue = 25.51"] ;
452 -> 453 ;
454 [label="X[6] <= 774.3\nmse = 2.482\nsamples = 6\nvalue = 26.002"] ;
453 -> 454 ;
455 [label="X[7] <= 10.5\nmse = 2.253\nsamples = 5\nvalue = 25.654"] ;
454 -> 455 ;
456 [label="X[6] <= 760.5\nmse = 1.49\nsamples = 3\nvalue = 24.91"] ;
455 -> 456 ;
457 [label="X[6] <= 746.15\nmse = 0.093\nsamples = 2\nvalue = 25.755"] ;
456 -> 457 ;
458 [label="mse = 0.0\nsamples = 1\nvalue = 25.45"] ;
457 -> 458 ;
459 [label="mse = -0.0\nsamples = 1\nvalue = 26.06"] ;
457 -> 459 ;
460 [label="mse = 0.0\nsamples = 1\nvalue = 23.22"] ;
456 -> 460 ;
461 [label="X[0] <= 380.5\nmse = 1.322\nsamples = 2\nvalue = 26.77"] ;
455 -> 461 ;
462 [label="mse = 0.0\nsamples = 1\nvalue = 25.62"] ;
461 -> 462 ;
463 [label="mse = -0.0\nsamples = 1\nvalue = 27.92"] ;
461 -> 463 ;
464 [label="mse = -0.0\nsamples = 1\nvalue = 27.74"] ;
454 -> 464 ;
465 [label="X[0] <= 382.25\nmse = 0.001\nsamples = 2\nvalue = 24.035"] ;
453 -> 465 ;
466 [label="mse = 0.0\nsamples = 1\nvalue = 24.0"] ;
465 -> 466 ;
467 [label="mse = 0.0\nsamples = 1\nvalue = 24.07"] ;
465 -> 467 ;
468 [label="mse = 0.0\nsamples = 1\nvalue = 30.14"] ;
452 -> 468 ;
469 [label="X[5] <= 1107.8\nmse = 2.356\nsamples = 2\nvalue = 13.005"] ;
441 -> 469 ;
470 [label="mse = 0.0\nsamples = 1\nvalue = 14.54"] ;
469 -> 470 ;
471 [label="mse = 0.0\nsamples = 1\nvalue = 11.47"] ;
469 -> 471 ;
472 [label="X[0] <= 357.5\nmse = 234.022\nsamples = 524\nvalue = 41.359"] ;
0 -> 472 [labeldistance=2.5, labelangle=-45, headlabel="False"] ;
473 [label="X[0] <= 166.45\nmse = 164.904\nsamples = 412\nvalue = 37.06"] ;
472 -> 473 ;
474 [label="X[1] <= 115.5\nmse = 87.647\nsamples = 101\nvalue = 26.497"] ;
473 -> 474 ;
475 [label="X[7] <= 42.0\nmse = 47.217\nsamples = 31\nvalue = 17.919"] ;
474 -> 475 ;
476 [label="X[4] <= 6.9\nmse = 15.022\nsamples = 27\nvalue = 15.779"] ;
475 -> 476 ;
477 [label="X[3] <= 169.9\nmse = 13.719\nsamples = 5\nvalue = 20.59"] ;
476 -> 477 ;
478 [label="mse = 0.0\nsamples = 1\nvalue = 26.2"] ;
477 -> 478 ;
479 [label="X[2] <= 194.0\nmse = 7.314\nsamples = 4\nvalue = 19.188"] ;
477 -> 479 ;
480 [label="X[2] <= 81.65\nmse = 3.173\nsamples = 3\nvalue = 20.47"] ;
479 -> 480 ;
481 [label="mse = 0.0\nsamples = 1\nvalue = 17.96"] ;
480 -> 481 ;
482 [label="X[6] <= 711.55\nmse = 0.034\nsamples = 2\nvalue = 21.725"] ;
480 -> 482 ;
483 [label="mse = 0.0\nsamples = 1\nvalue = 21.91"] ;
482 -> 483 ;
484 [label="mse = -0.0\nsamples = 1\nvalue = 21.54"] ;
482 -> 484 ;
485 [label="mse = -0.0\nsamples = 1\nvalue = 15.34"] ;
479 -> 485 ;
486 [label="X[1] <= 57.3\nmse = 8.861\nsamples = 22\nvalue = 14.685"] ;
476 -> 486 ;
487 [label="X[4] <= 11.35\nmse = 6.651\nsamples = 20\nvalue = 14.154"] ;
486 -> 487 ;
488 [label="X[5] <= 929.5\nmse = 2.645\nsamples = 8\nvalue = 11.551"] ;
487 -> 488 ;
489 [label="X[2] <= 186.95\nmse = 0.676\nsamples = 3\nvalue = 9.607"] ;
488 -> 489 ;
490 [label="X[3] <= 197.35\nmse = 0.16\nsamples = 2\nvalue = 10.14"] ;
489 -> 490 ;
491 [label="mse = 0.0\nsamples = 1\nvalue = 9.74"] ;
490 -> 491 ;
492 [label="mse = -0.0\nsamples = 1\nvalue = 10.54"] ;
490 -> 492 ;
493 [label="mse = 0.0\nsamples = 1\nvalue = 8.54"] ;
489 -> 493 ;
494 [label="X[5] <= 985.75\nmse = 0.196\nsamples = 5\nvalue = 12.718"] ;
488 -> 494 ;
495 [label="X[3] <= 180.4\nmse = 0.002\nsamples = 2\nvalue = 13.245"] ;
494 -> 495 ;
496 [label="mse = 0.0\nsamples = 1\nvalue = 13.29"] ;
495 -> 496 ;
497 [label="mse = 0.0\nsamples = 1\nvalue = 13.2"] ;
495 -> 497 ;
498 [label="X[5] <= 1019.5\nmse = 0.017\nsamples = 3\nvalue = 12.367"] ;
494 -> 498 ;
499 [label="mse = 0.0\nsamples = 1\nvalue = 12.18"] ;
498 -> 499 ;
500 [label="mse = 0.0\nsamples = 2\nvalue = 12.46"] ;
498 -> 500 ;
501 [label="X[2] <= 162.65\nmse = 1.792\nsamples = 12\nvalue = 15.89"] ;
487 -> 501 ;
502 [label="X[4] <= 14.0\nmse = 0.001\nsamples = 3\nvalue = 18.003"] ;
501 -> 502 ;
503 [label="mse = 0.0\nsamples = 2\nvalue = 18.03"] ;
502 -> 503 ;
504 [label="mse = -0.0\nsamples = 1\nvalue = 17.95"] ;
502 -> 504 ;
505 [label="X[5] <= 1032.85\nmse = 0.404\nsamples = 9\nvalue = 15.186"] ;
501 -> 505 ;
506 [label="X[0] <= 157.5\nmse = 0.035\nsamples = 8\nvalue = 15.401"] ;
505 -> 506 ;
507 [label="X[4] <= 16.45\nmse = 0.004\nsamples = 6\nvalue = 15.505"] ;
506 -> 507 ;
508 [label="X[3] <= 174.0\nmse = 0.001\nsamples = 4\nvalue = 15.548"] ;
507 -> 508 ;
509 [label="mse = 0.0\nsamples = 2\nvalue = 15.57"] ;
508 -> 509 ;
510 [label="X[6] <= 884.15\nmse = 0.0\nsamples = 2\nvalue = 15.525"] ;
508 -> 510 ;
511 [label="mse = 0.0\nsamples = 1\nvalue = 15.52"] ;
510 -> 511 ;
512 [label="mse = 0.0\nsamples = 1\nvalue = 15.53"] ;
510 -> 512 ;
513 [label="mse = -0.0\nsamples = 2\nvalue = 15.42"] ;
507 -> 513 ;
514 [label="mse = -0.0\nsamples = 2\nvalue = 15.09"] ;
506 -> 514 ;
515 [label="mse = -0.0\nsamples = 1\nvalue = 13.46"] ;
505 -> 515 ;
516 [label="mse = -0.0\nsamples = 2\nvalue = 19.99"] ;
486 -> 516 ;
517 [label="X[3] <= 170.15\nmse = 24.849\nsamples = 4\nvalue = 32.368"] ;
475 -> 517 ;
518 [label="X[7] <= 78.0\nmse = 0.49\nsamples = 2\nvalue = 37.26"] ;
517 -> 518 ;
519 [label="mse = 0.0\nsamples = 1\nvalue = 36.56"] ;
518 -> 519 ;
520 [label="mse = -0.0\nsamples = 1\nvalue = 37.96"] ;
518 -> 520 ;
521 [label="X[7] <= 73.0\nmse = 1.334\nsamples = 2\nvalue = 27.475"] ;
517 -> 521 ;
522 [label="mse = 0.0\nsamples = 1\nvalue = 28.63"] ;
521 -> 522 ;
523 [label="mse = -0.0\nsamples = 1\nvalue = 26.32"] ;
521 -> 523 ;
524 [label="X[7] <= 42.0\nmse = 58.534\nsamples = 70\nvalue = 30.296"] ;
474 -> 524 ;
525 [label="X[4] <= 10.55\nmse = 43.721\nsamples = 60\nvalue = 28.89"] ;
524 -> 525 ;
526 [label="X[5] <= 873.0\nmse = 31.872\nsamples = 46\nvalue = 26.84"] ;
525 -> 526 ;
527 [label="X[4] <= 6.7\nmse = 11.523\nsamples = 15\nvalue = 31.797"] ;
526 -> 527 ;
528 [label="X[4] <= 5.75\nmse = 7.382\nsamples = 8\nvalue = 33.926"] ;
527 -> 528 ;
529 [label="X[6] <= 876.0\nmse = 2.527\nsamples = 5\nvalue = 32.31"] ;
528 -> 529 ;
530 [label="X[3] <= 202.25\nmse = 0.058\nsamples = 4\nvalue = 33.098"] ;
529 -> 530 ;
531 [label="X[6] <= 804.0\nmse = 0.013\nsamples = 3\nvalue = 33.223"] ;
530 -> 531 ;
532 [label="X[1] <= 206.75\nmse = 0.0\nsamples = 2\nvalue = 33.305"] ;
531 -> 532 ;
533 [label="mse = 0.0\nsamples = 1\nvalue = 33.31"] ;
532 -> 533 ;
534 [label="mse = 0.0\nsamples = 1\nvalue = 33.3"] ;
532 -> 534 ;
535 [label="mse = 0.0\nsamples = 1\nvalue = 33.06"] ;
531 -> 535 ;
536 [label="mse = 0.0\nsamples = 1\nvalue = 32.72"] ;
530 -> 536 ;
537 [label="mse = 0.0\nsamples = 1\nvalue = 29.16"] ;
529 -> 537 ;
538 [label="X[0] <= 150.0\nmse = 3.864\nsamples = 3\nvalue = 36.62"] ;
528 -> 538 ;
539 [label="mse = 0.0\nsamples = 2\nvalue = 35.23"] ;
538 -> 539 ;
540 [label="mse = -0.0\nsamples = 1\nvalue = 39.4"] ;
538 -> 540 ;
541 [label="X[6] <= 814.65\nmse = 5.149\nsamples = 7\nvalue = 29.363"] ;
527 -> 541 ;
542 [label="X[1] <= 211.5\nmse = 1.712\nsamples = 5\nvalue = 30.616"] ;
541 -> 542 ;
543 [label="X[1] <= 193.5\nmse = 0.289\nsamples = 4\nvalue = 30.008"] ;
542 -> 543 ;
544 [label="X[5] <= 834.05\nmse = 0.047\nsamples = 3\nvalue = 29.717"] ;
543 -> 544 ;
545 [label="mse = -0.0\nsamples = 2\nvalue = 29.87"] ;
544 -> 545 ;
546 [label="mse = 0.0\nsamples = 1\nvalue = 29.41"] ;
544 -> 546 ;
547 [label="mse = 0.0\nsamples = 1\nvalue = 30.88"] ;
543 -> 547 ;
548 [label="mse = 0.0\nsamples = 1\nvalue = 33.05"] ;
542 -> 548 ;
549 [label="mse = 0.0\nsamples = 2\nvalue = 26.23"] ;
541 -> 549 ;
550 [label="X[3] <= 211.75\nmse = 24.076\nsamples = 31\nvalue = 24.441"] ;
526 -> 550 ;
551 [label="X[2] <= 97.65\nmse = 21.087\nsamples = 29\nvalue = 24.989"] ;
550 -> 551 ;
552 [label="X[1] <= 196.4\nmse = 17.529\nsamples = 20\nvalue = 23.523"] ;
551 -> 552 ;
553 [label="X[3] <= 174.6\nmse = 9.022\nsamples = 15\nvalue = 22.05"] ;
552 -> 553 ;
554 [label="mse = 0.0\nsamples = 2\nvalue = 26.92"] ;
553 -> 554 ;
555 [label="X[5] <= 992.85\nmse = 6.2\nsamples = 13\nvalue = 21.301"] ;
553 -> 555 ;
556 [label="X[0] <= 112.15\nmse = 4.378\nsamples = 9\nvalue = 22.48"] ;
555 -> 556 ;
557 [label="X[6] <= 895.5\nmse = 2.739\nsamples = 2\nvalue = 18.935"] ;
556 -> 557 ;
558 [label="mse = 0.0\nsamples = 1\nvalue = 20.59"] ;
557 -> 558 ;
559 [label="mse = -0.0\nsamples = 1\nvalue = 17.28"] ;
557 -> 559 ;
560 [label="X[4] <= 1.5\nmse = 0.229\nsamples = 7\nvalue = 23.493"] ;
556 -> 560 ;
561 [label="mse = 0.0\nsamples = 1\nvalue = 22.35"] ;
560 -> 561 ;
562 [label="X[6] <= 798.55\nmse = 0.014\nsamples = 6\nvalue = 23.683"] ;
560 -> 562 ;
563 [label="mse = 0.0\nsamples = 2\nvalue = 23.52"] ;
562 -> 563 ;
564 [label="X[6] <= 842.35\nmse = 0.001\nsamples = 4\nvalue = 23.765"] ;
562 -> 564 ;
565 [label="mse = 0.0\nsamples = 2\nvalue = 23.74"] ;
564 -> 565 ;
566 [label="mse = 0.0\nsamples = 2\nvalue = 23.79"] ;
564 -> 566 ;
567 [label="X[5] <= 1023.5\nmse = 0.131\nsamples = 4\nvalue = 18.648"] ;
555 -> 567 ;
568 [label="mse = 0.0\nsamples = 2\nvalue = 19.01"] ;
567 -> 568 ;
569 [label="X[1] <= 183.2\nmse = 0.0\nsamples = 2\nvalue = 18.285"] ;
567 -> 569 ;
570 [label="mse = 0.0\nsamples = 1\nvalue = 18.28"] ;
569 -> 570 ;
571 [label="mse = 0.0\nsamples = 1\nvalue = 18.29"] ;
569 -> 571 ;
572 [label="X[3] <= 188.85\nmse = 16.995\nsamples = 5\nvalue = 27.944"] ;
552 -> 572 ;
573 [label="mse = 0.0\nsamples = 1\nvalue = 21.07"] ;
572 -> 573 ;
574 [label="X[5] <= 953.6\nmse = 6.477\nsamples = 4\nvalue = 29.662"] ;
572 -> 574 ;
575 [label="mse = 0.0\nsamples = 1\nvalue = 33.66"] ;
574 -> 575 ;
576 [label="X[3] <= 201.75\nmse = 1.534\nsamples = 3\nvalue = 28.33"] ;
574 -> 576 ;
577 [label="X[3] <= 196.0\nmse = 0.476\nsamples = 2\nvalue = 27.55"] ;
576 -> 577 ;
578 [label="mse = 0.0\nsamples = 1\nvalue = 28.24"] ;
577 -> 578 ;
579 [label="mse = 0.0\nsamples = 1\nvalue = 26.86"] ;
577 -> 579 ;
580 [label="mse = 0.0\nsamples = 1\nvalue = 29.89"] ;
576 -> 580 ;
581 [label="X[2] <= 105.95\nmse = 13.616\nsamples = 9\nvalue = 28.246"] ;
551 -> 581 ;
582 [label="mse = 0.0\nsamples = 1\nvalue = 36.44"] ;
581 -> 582 ;
583 [label="X[1] <= 153.3\nmse = 5.875\nsamples = 8\nvalue = 27.221"] ;
581 -> 583 ;
584 [label="X[2] <= 111.0\nmse = 0.773\nsamples = 3\nvalue = 24.317"] ;
583 -> 584 ;
585 [label="X[1] <= 139.2\nmse = 0.0\nsamples = 2\nvalue = 23.695"] ;
584 -> 585 ;
586 [label="mse = 0.0\nsamples = 1\nvalue = 23.69"] ;
585 -> 586 ;
587 [label="mse = 0.0\nsamples = 1\nvalue = 23.7"] ;
585 -> 587 ;
588 [label="mse = -0.0\nsamples = 1\nvalue = 25.56"] ;
584 -> 588 ;
589 [label="X[0] <= 153.5\nmse = 0.838\nsamples = 5\nvalue = 28.964"] ;
583 -> 589 ;
590 [label="X[3] <= 181.35\nmse = 0.107\nsamples = 4\nvalue = 29.398"] ;
589 -> 590 ;
591 [label="mse = 0.0\nsamples = 2\nvalue = 29.07"] ;
590 -> 591 ;
592 [label="X[2] <= 142.85\nmse = 0.0\nsamples = 2\nvalue = 29.725"] ;
590 -> 592 ;
593 [label="mse = 0.0\nsamples = 1\nvalue = 29.73"] ;
592 -> 593 ;
594 [label="mse = -0.0\nsamples = 1\nvalue = 29.72"] ;
592 -> 594 ;
595 [label="mse = 0.0\nsamples = 1\nvalue = 27.23"] ;
589 -> 595 ;
596 [label="mse = 0.0\nsamples = 2\nvalue = 16.5"] ;
550 -> 596 ;
597 [label="X[0] <= 145.5\nmse = 23.483\nsamples = 14\nvalue = 35.625"] ;
525 -> 597 ;
598 [label="mse = 0.0\nsamples = 2\nvalue = 44.61"] ;
597 -> 598 ;
599 [label="X[1] <= 163.55\nmse = 11.7\nsamples = 12\nvalue = 34.128"] ;
597 -> 599 ;
600 [label="mse = 0.0\nsamples = 2\nvalue = 27.68"] ;
599 -> 600 ;
601 [label="X[1] <= 236.5\nmse = 4.063\nsamples = 10\nvalue = 35.417"] ;
599 -> 601 ;
602 [label="X[6] <= 725.55\nmse = 1.833\nsamples = 6\nvalue = 34.017"] ;
601 -> 602 ;
603 [label="X[5] <= 886.35\nmse = 0.27\nsamples = 2\nvalue = 35.83"] ;
602 -> 603 ;
604 [label="mse = 0.0\nsamples = 1\nvalue = 35.31"] ;
603 -> 604 ;
605 [label="mse = 0.0\nsamples = 1\nvalue = 36.35"] ;
603 -> 605 ;
606 [label="X[5] <= 842.45\nmse = 0.147\nsamples = 4\nvalue = 33.11"] ;
602 -> 606 ;
607 [label="mse = 0.0\nsamples = 1\nvalue = 33.76"] ;
606 -> 607 ;
608 [label="X[4] <= 11.8\nmse = 0.009\nsamples = 3\nvalue = 32.893"] ;
606 -> 608 ;
609 [label="mse = 0.0\nsamples = 1\nvalue = 32.76"] ;
608 -> 609 ;
610 [label="mse = -0.0\nsamples = 2\nvalue = 32.96"] ;
608 -> 610 ;
611 [label="X[4] <= 12.35\nmse = 0.055\nsamples = 4\nvalue = 37.518"] ;
601 -> 611 ;
612 [label="X[1] <= 240.0\nmse = 0.001\nsamples = 3\nvalue = 37.383"] ;
611 -> 612 ;
613 [label="mse = 0.0\nsamples = 1\nvalue = 37.43"] ;
612 -> 613 ;
614 [label="mse = -0.0\nsamples = 2\nvalue = 37.36"] ;
612 -> 614 ;
615 [label="mse = 0.0\nsamples = 1\nvalue = 37.92"] ;
611 -> 615 ;
616 [label="X[0] <= 136.3\nmse = 64.362\nsamples = 10\nvalue = 38.733"] ;
524 -> 616 ;
617 [label="X[1] <= 186.5\nmse = 16.088\nsamples = 4\nvalue = 30.575"] ;
616 -> 617 ;
618 [label="X[1] <= 157.7\nmse = 5.37\nsamples = 3\nvalue = 28.57"] ;
617 -> 618 ;
619 [label="mse = 0.0\nsamples = 1\nvalue = 25.46"] ;
618 -> 619 ;
620 [label="X[3] <= 197.75\nmse = 0.801\nsamples = 2\nvalue = 30.125"] ;
618 -> 620 ;
621 [label="mse = 0.0\nsamples = 1\nvalue = 31.02"] ;
620 -> 621 ;
622 [label="mse = -0.0\nsamples = 1\nvalue = 29.23"] ;
620 -> 622 ;
623 [label="mse = 0.0\nsamples = 1\nvalue = 36.59"] ;
617 -> 623 ;
624 [label="X[6] <= 747.55\nmse = 22.598\nsamples = 6\nvalue = 44.172"] ;
616 -> 624 ;
625 [label="mse = 0.0\nsamples = 1\nvalue = 53.72"] ;
624 -> 625 ;
626 [label="X[7] <= 135.0\nmse = 5.236\nsamples = 5\nvalue = 42.262"] ;
624 -> 626 ;
627 [label="X[1] <= 224.0\nmse = 3.343\nsamples = 3\nvalue = 40.8"] ;
626 -> 627 ;
628 [label="X[0] <= 140.45\nmse = 0.022\nsamples = 2\nvalue = 39.51"] ;
627 -> 628 ;
629 [label="mse = 0.0\nsamples = 1\nvalue = 39.36"] ;
628 -> 629 ;
630 [label="mse = -0.0\nsamples = 1\nvalue = 39.66"] ;
628 -> 630 ;
631 [label="mse = 0.0\nsamples = 1\nvalue = 43.38"] ;
627 -> 631 ;
632 [label="X[7] <= 270.0\nmse = 0.06\nsamples = 2\nvalue = 44.455"] ;
626 -> 632 ;
633 [label="mse = 0.0\nsamples = 1\nvalue = 44.21"] ;
632 -> 633 ;
634 [label="mse = 0.0\nsamples = 1\nvalue = 44.7"] ;
632 -> 634 ;
635 [label="X[3] <= 179.95\nmse = 141.986\nsamples = 311\nvalue = 40.491"] ;
473 -> 635 ;
636 [label="X[1] <= 163.5\nmse = 115.413\nsamples = 127\nvalue = 47.301"] ;
635 -> 636 ;
637 [label="X[0] <= 213.05\nmse = 91.651\nsamples = 114\nvalue = 45.506"] ;
636 -> 637 ;
638 [label="X[1] <= 47.65\nmse = 70.388\nsamples = 40\nvalue = 40.488"] ;
637 -> 638 ;
639 [label="X[7] <= 42.0\nmse = 42.233\nsamples = 28\nvalue = 36.813"] ;
638 -> 639 ;
640 [label="X[2] <= 125.0\nmse = 25.885\nsamples = 10\nvalue = 30.978"] ;
639 -> 640 ;
641 [label="X[6] <= 904.85\nmse = 18.385\nsamples = 7\nvalue = 33.274"] ;
640 -> 641 ;
642 [label="X[4] <= 8.0\nmse = 10.352\nsamples = 6\nvalue = 34.533"] ;
641 -> 642 ;
643 [label="X[4] <= 7.65\nmse = 0.378\nsamples = 2\nvalue = 37.885"] ;
642 -> 643 ;
644 [label="mse = 0.0\nsamples = 1\nvalue = 37.27"] ;
643 -> 644 ;
645 [label="mse = -0.0\nsamples = 1\nvalue = 38.5"] ;
643 -> 645 ;
646 [label="X[0] <= 212.55\nmse = 6.914\nsamples = 4\nvalue = 32.858"] ;
642 -> 646 ;
647 [label="X[6] <= 849.9\nmse = 0.048\nsamples = 3\nvalue = 31.343"] ;
646 -> 647 ;
648 [label="X[6] <= 788.45\nmse = 0.006\nsamples = 2\nvalue = 31.195"] ;
647 -> 648 ;
649 [label="mse = 0.0\nsamples = 1\nvalue = 31.27"] ;
648 -> 649 ;
650 [label="mse = -0.0\nsamples = 1\nvalue = 31.12"] ;
648 -> 650 ;
651 [label="mse = 0.0\nsamples = 1\nvalue = 31.64"] ;
647 -> 651 ;
652 [label="mse = -0.0\nsamples = 1\nvalue = 37.4"] ;
646 -> 652 ;
653 [label="mse = 0.0\nsamples = 1\nvalue = 25.72"] ;
641 -> 653 ;
654 [label="X[6] <= 778.95\nmse = 2.373\nsamples = 3\nvalue = 25.62"] ;
640 -> 654 ;
655 [label="mse = 0.0\nsamples = 1\nvalue = 27.77"] ;
654 -> 655 ;
656 [label="X[4] <= 7.8\nmse = 0.093\nsamples = 2\nvalue = 24.545"] ;
654 -> 656 ;
657 [label="mse = 0.0\nsamples = 1\nvalue = 24.24"] ;
656 -> 657 ;
658 [label="mse = -0.0\nsamples = 1\nvalue = 24.85"] ;
656 -> 658 ;
659 [label="X[3] <= 169.9\nmse = 21.893\nsamples = 18\nvalue = 40.054"] ;
639 -> 659 ;
660 [label="X[0] <= 203.6\nmse = 17.964\nsamples = 14\nvalue = 38.653"] ;
659 -> 660 ;
661 [label="X[4] <= 7.55\nmse = 11.64\nsamples = 12\nvalue = 37.571"] ;
660 -> 661 ;
662 [label="X[7] <= 78.0\nmse = 3.53\nsamples = 5\nvalue = 35.536"] ;
661 -> 662 ;
663 [label="X[2] <= 168.1\nmse = 1.534\nsamples = 3\nvalue = 34.22"] ;
662 -> 663 ;
664 [label="X[5] <= 1032.55\nmse = 0.308\nsamples = 2\nvalue = 33.405"] ;
663 -> 664 ;
665 [label="mse = 0.0\nsamples = 1\nvalue = 33.96"] ;
664 -> 665 ;
666 [label="mse = 0.0\nsamples = 1\nvalue = 32.85"] ;
664 -> 666 ;
667 [label="mse = 0.0\nsamples = 1\nvalue = 35.85"] ;
663 -> 667 ;
668 [label="X[6] <= 881.15\nmse = 0.029\nsamples = 2\nvalue = 37.51"] ;
662 -> 668 ;
669 [label="mse = 0.0\nsamples = 1\nvalue = 37.68"] ;
668 -> 669 ;
670 [label="mse = -0.0\nsamples = 1\nvalue = 37.34"] ;
668 -> 670 ;
671 [label="X[2] <= 125.3\nmse = 12.363\nsamples = 7\nvalue = 39.024"] ;
661 -> 671 ;
672 [label="X[3] <= 164.25\nmse = 6.758\nsamples = 4\nvalue = 37.915"] ;
671 -> 672 ;
673 [label="X[7] <= 78.0\nmse = 0.582\nsamples = 3\nvalue = 39.367"] ;
672 -> 673 ;
674 [label="X[3] <= 160.1\nmse = 0.087\nsamples = 2\nvalue = 38.855"] ;
673 -> 674 ;
675 [label="mse = 0.0\nsamples = 1\nvalue = 39.15"] ;
674 -> 675 ;
676 [label="mse = -0.0\nsamples = 1\nvalue = 38.56"] ;
674 -> 676 ;
677 [label="mse = 0.0\nsamples = 1\nvalue = 40.39"] ;
673 -> 677 ;
678 [label="mse = 0.0\nsamples = 1\nvalue = 33.56"] ;
672 -> 678 ;
679 [label="X[7] <= 78.0\nmse = 16.009\nsamples = 3\nvalue = 40.503"] ;
671 -> 679 ;
680 [label="mse = 0.0\nsamples = 1\nvalue = 35.57"] ;
679 -> 680 ;
681 [label="X[5] <= 1072.8\nmse = 5.76\nsamples = 2\nvalue = 42.97"] ;
679 -> 681 ;
682 [label="mse = 0.0\nsamples = 1\nvalue = 45.37"] ;
681 -> 682 ;
683 [label="mse = 0.0\nsamples = 1\nvalue = 40.57"] ;
681 -> 683 ;
684 [label="X[5] <= 1005.8\nmse = 6.734\nsamples = 2\nvalue = 45.145"] ;
660 -> 684 ;
685 [label="mse = 0.0\nsamples = 1\nvalue = 47.74"] ;
684 -> 685 ;
686 [label="mse = 0.0\nsamples = 1\nvalue = 42.55"] ;
684 -> 686 ;
687 [label="X[7] <= 78.0\nmse = 4.706\nsamples = 4\nvalue = 44.96"] ;
659 -> 687 ;
688 [label="X[4] <= 7.85\nmse = 0.003\nsamples = 2\nvalue = 43.445"] ;
687 -> 688 ;
689 [label="mse = 0.0\nsamples = 1\nvalue = 43.39"] ;
688 -> 689 ;
690 [label="mse = 0.0\nsamples = 1\nvalue = 43.5"] ;
688 -> 690 ;
691 [label="X[5] <= 1028.7\nmse = 4.818\nsamples = 2\nvalue = 46.475"] ;
687 -> 691 ;
692 [label="mse = 0.0\nsamples = 1\nvalue = 44.28"] ;
691 -> 692 ;
693 [label="mse = 0.0\nsamples = 1\nvalue = 48.67"] ;
691 -> 693 ;
694 [label="X[7] <= 42.0\nmse = 31.059\nsamples = 12\nvalue = 49.062"] ;
638 -> 694 ;
695 [label="X[6] <= 781.8\nmse = 2.15\nsamples = 3\nvalue = 40.27"] ;
694 -> 695 ;
696 [label="X[3] <= 169.75\nmse = 0.011\nsamples = 2\nvalue = 41.305"] ;
695 -> 696 ;
697 [label="mse = 0.0\nsamples = 1\nvalue = 41.41"] ;
696 -> 697 ;
698 [label="mse = 0.0\nsamples = 1\nvalue = 41.2"] ;
696 -> 698 ;
699 [label="mse = -0.0\nsamples = 1\nvalue = 38.2"] ;
695 -> 699 ;
700 [label="X[0] <= 173.65\nmse = 6.343\nsamples = 9\nvalue = 51.992"] ;
694 -> 700 ;
701 [label="X[7] <= 78.0\nmse = 2.697\nsamples = 5\nvalue = 53.884"] ;
700 -> 701 ;
702 [label="X[1] <= 102.65\nmse = 0.814\nsamples = 3\nvalue = 52.983"] ;
701 -> 702 ;
703 [label="X[5] <= 1006.75\nmse = 0.024\nsamples = 2\nvalue = 53.615"] ;
702 -> 703 ;
704 [label="mse = 0.0\nsamples = 1\nvalue = 53.77"] ;
703 -> 704 ;
705 [label="mse = 0.0\nsamples = 1\nvalue = 53.46"] ;
703 -> 705 ;
706 [label="mse = -0.0\nsamples = 1\nvalue = 51.72"] ;
702 -> 706 ;
707 [label="X[3] <= 169.75\nmse = 2.481\nsamples = 2\nvalue = 55.235"] ;
701 -> 707 ;
708 [label="mse = 0.0\nsamples = 1\nvalue = 56.81"] ;
707 -> 708 ;
709 [label="mse = 0.0\nsamples = 1\nvalue = 53.66"] ;
707 -> 709 ;
710 [label="X[7] <= 78.0\nmse = 0.834\nsamples = 4\nvalue = 49.628"] ;
700 -> 710 ;
711 [label="X[4] <= 6.65\nmse = 0.04\nsamples = 2\nvalue = 48.79"] ;
710 -> 711 ;
712 [label="mse = 0.0\nsamples = 1\nvalue = 48.59"] ;
711 -> 712 ;
713 [label="mse = -0.0\nsamples = 1\nvalue = 48.99"] ;
711 -> 713 ;
714 [label="X[5] <= 1007.25\nmse = 0.226\nsamples = 2\nvalue = 50.465"] ;
710 -> 714 ;
715 [label="mse = 0.0\nsamples = 1\nvalue = 50.94"] ;
714 -> 715 ;
716 [label="mse = -0.0\nsamples = 1\nvalue = 49.99"] ;
714 -> 716 ;
717 [label="X[5] <= 1059.05\nmse = 82.174\nsamples = 74\nvalue = 48.218"] ;
637 -> 717 ;
718 [label="X[7] <= 42.0\nmse = 45.356\nsamples = 64\nvalue = 46.441"] ;
717 -> 718 ;
719 [label="X[1] <= 7.5\nmse = 34.587\nsamples = 40\nvalue = 43.66"] ;
718 -> 719 ;
720 [label="X[5] <= 1014.4\nmse = 40.624\nsamples = 14\nvalue = 40.169"] ;
719 -> 720 ;
721 [label="X[4] <= 13.6\nmse = 29.459\nsamples = 8\nvalue = 37.398"] ;
720 -> 721 ;
722 [label="X[3] <= 160.85\nmse = 5.209\nsamples = 7\nvalue = 35.511"] ;
721 -> 722 ;
723 [label="X[4] <= 12.6\nmse = 2.387\nsamples = 2\nvalue = 32.395"] ;
722 -> 723 ;
724 [label="mse = 0.0\nsamples = 1\nvalue = 33.94"] ;
723 -> 724 ;
725 [label="mse = 0.0\nsamples = 1\nvalue = 30.85"] ;
723 -> 725 ;
726 [label="X[0] <= 313.65\nmse = 0.899\nsamples = 5\nvalue = 36.758"] ;
722 -> 726 ;
727 [label="X[4] <= 10.4\nmse = 0.219\nsamples = 4\nvalue = 36.332"] ;
726 -> 727 ;
728 [label="mse = 0.0\nsamples = 2\nvalue = 36.8"] ;
727 -> 728 ;
729 [label="X[0] <= 298.05\nmse = 0.0\nsamples = 2\nvalue = 35.865"] ;
727 -> 729 ;
730 [label="mse = 0.0\nsamples = 1\nvalue = 35.86"] ;
729 -> 730 ;
731 [label="mse = 0.0\nsamples = 1\nvalue = 35.87"] ;
729 -> 731 ;
732 [label="mse = -0.0\nsamples = 1\nvalue = 38.46"] ;
726 -> 732 ;
733 [label="mse = 0.0\nsamples = 1\nvalue = 50.6"] ;
721 -> 733 ;
734 [label="X[4] <= 8.1\nmse = 31.608\nsamples = 6\nvalue = 43.865"] ;
720 -> 734 ;
735 [label="mse = 0.0\nsamples = 1\nvalue = 33.73"] ;
734 -> 735 ;
736 [label="X[2] <= 174.45\nmse = 13.277\nsamples = 5\nvalue = 45.892"] ;
734 -> 736 ;
737 [label="X[6] <= 776.5\nmse = 6.293\nsamples = 4\nvalue = 47.328"] ;
736 -> 737 ;
738 [label="X[3] <= 167.0\nmse = 1.271\nsamples = 3\nvalue = 45.993"] ;
737 -> 738 ;
739 [label="X[3] <= 156.9\nmse = 0.422\nsamples = 2\nvalue = 45.29"] ;
738 -> 739 ;
740 [label="mse = 0.0\nsamples = 1\nvalue = 45.94"] ;
739 -> 740 ;
741 [label="mse = 0.0\nsamples = 1\nvalue = 44.64"] ;
739 -> 741 ;
742 [label="mse = -0.0\nsamples = 1\nvalue = 47.4"] ;
738 -> 742 ;
743 [label="mse = 0.0\nsamples = 1\nvalue = 51.33"] ;
737 -> 743 ;
744 [label="mse = 0.0\nsamples = 1\nvalue = 40.15"] ;
736 -> 744 ;
745 [label="X[4] <= 8.95\nmse = 21.24\nsamples = 26\nvalue = 45.54"] ;
719 -> 745 ;
746 [label="X[2] <= 45.15\nmse = 3.676\nsamples = 14\nvalue = 43.076"] ;
745 -> 746 ;
747 [label="X[3] <= 147.65\nmse = 2.302\nsamples = 10\nvalue = 42.259"] ;
746 -> 747 ;
748 [label="mse = 0.0\nsamples = 2\nvalue = 44.52"] ;
747 -> 748 ;
749 [label="X[5] <= 867.1\nmse = 1.28\nsamples = 8\nvalue = 41.694"] ;
747 -> 749 ;
750 [label="mse = 0.0\nsamples = 1\nvalue = 44.39"] ;
749 -> 750 ;
751 [label="X[6] <= 826.5\nmse = 0.276\nsamples = 7\nvalue = 41.309"] ;
749 -> 751 ;
752 [label="X[6] <= 741.5\nmse = 0.003\nsamples = 5\nvalue = 40.978"] ;
751 -> 752 ;
753 [label="mse = 0.0\nsamples = 2\nvalue = 41.05"] ;
752 -> 753 ;
754 [label="mse = -0.0\nsamples = 3\nvalue = 40.93"] ;
752 -> 754 ;
755 [label="X[5] <= 907.95\nmse = 0.0\nsamples = 2\nvalue = 42.135"] ;
751 -> 755 ;
756 [label="mse = 0.0\nsamples = 1\nvalue = 42.14"] ;
755 -> 756 ;
757 [label="mse = -0.0\nsamples = 1\nvalue = 42.13"] ;
755 -> 757 ;
758 [label="X[1] <= 130.5\nmse = 1.275\nsamples = 4\nvalue = 45.118"] ;
746 -> 758 ;
759 [label="X[0] <= 280.2\nmse = 0.076\nsamples = 2\nvalue = 44.005"] ;
758 -> 759 ;
760 [label="mse = 0.0\nsamples = 1\nvalue = 44.28"] ;
759 -> 760 ;
761 [label="mse = 0.0\nsamples = 1\nvalue = 43.73"] ;
759 -> 761 ;
762 [label="mse = -0.0\nsamples = 2\nvalue = 46.23"] ;
758 -> 762 ;
763 [label="X[6] <= 752.0\nmse = 26.382\nsamples = 12\nvalue = 48.415"] ;
745 -> 763 ;
764 [label="X[2] <= 125.25\nmse = 13.729\nsamples = 3\nvalue = 42.04"] ;
763 -> 764 ;
765 [label="mse = 0.0\nsamples = 2\nvalue = 39.42"] ;
764 -> 765 ;
766 [label="mse = 0.0\nsamples = 1\nvalue = 47.28"] ;
764 -> 766 ;
767 [label="X[4] <= 12.7\nmse = 12.537\nsamples = 9\nvalue = 50.54"] ;
763 -> 767 ;
768 [label="X[2] <= 87.7\nmse = 8.144\nsamples = 8\nvalue = 51.354"] ;
767 -> 768 ;
769 [label="X[6] <= 783.5\nmse = 6.827\nsamples = 5\nvalue = 49.946"] ;
768 -> 769 ;
770 [label="X[5] <= 926.35\nmse = 1.789\nsamples = 4\nvalue = 51.108"] ;
769 -> 770 ;
771 [label="X[4] <= 9.8\nmse = 0.0\nsamples = 2\nvalue = 52.445"] ;
770 -> 771 ;
772 [label="mse = 0.0\nsamples = 1\nvalue = 52.45"] ;
771 -> 772 ;
773 [label="mse = 0.0\nsamples = 1\nvalue = 52.44"] ;
771 -> 773 ;
774 [label="mse = 0.0\nsamples = 2\nvalue = 49.77"] ;
770 -> 774 ;
775 [label="mse = -0.0\nsamples = 1\nvalue = 45.3"] ;
769 -> 775 ;
776 [label="X[3] <= 158.5\nmse = 1.531\nsamples = 3\nvalue = 53.7"] ;
768 -> 776 ;
777 [label="mse = 0.0\nsamples = 1\nvalue = 55.45"] ;
776 -> 777 ;
778 [label="X[3] <= 172.2\nmse = 0.0\nsamples = 2\nvalue = 52.825"] ;
776 -> 778 ;
779 [label="mse = 0.0\nsamples = 1\nvalue = 52.82"] ;
778 -> 779 ;
780 [label="mse = -0.0\nsamples = 1\nvalue = 52.83"] ;
778 -> 780 ;
781 [label="mse = 0.0\nsamples = 1\nvalue = 44.03"] ;
767 -> 781 ;
782 [label="X[4] <= 9.45\nmse = 28.934\nsamples = 24\nvalue = 51.076"] ;
718 -> 782 ;
783 [label="X[0] <= 293.05\nmse = 8.819\nsamples = 7\nvalue = 46.839"] ;
782 -> 783 ;
784 [label="X[7] <= 78.0\nmse = 4.221\nsamples = 5\nvalue = 45.422"] ;
783 -> 784 ;
785 [label="X[6] <= 789.75\nmse = 1.032\nsamples = 3\nvalue = 44.1"] ;
784 -> 785 ;
786 [label="mse = 0.0\nsamples = 1\nvalue = 42.7"] ;
785 -> 786 ;
787 [label="X[2] <= 118.6\nmse = 0.078\nsamples = 2\nvalue = 44.8"] ;
785 -> 787 ;
788 [label="mse = 0.0\nsamples = 1\nvalue = 45.08"] ;
787 -> 788 ;
789 [label="mse = 0.0\nsamples = 1\nvalue = 44.52"] ;
787 -> 789 ;
790 [label="X[0] <= 261.1\nmse = 2.449\nsamples = 2\nvalue = 47.405"] ;
784 -> 790 ;
791 [label="mse = 0.0\nsamples = 1\nvalue = 45.84"] ;
790 -> 791 ;
792 [label="mse = 0.0\nsamples = 1\nvalue = 48.97"] ;
790 -> 792 ;
793 [label="X[7] <= 78.0\nmse = 2.756\nsamples = 2\nvalue = 50.38"] ;
783 -> 793 ;
794 [label="mse = 0.0\nsamples = 1\nvalue = 48.72"] ;
793 -> 794 ;
795 [label="mse = 0.0\nsamples = 1\nvalue = 52.04"] ;
793 -> 795 ;
796 [label="X[0] <= 252.05\nmse = 26.78\nsamples = 17\nvalue = 52.821"] ;
782 -> 796 ;
797 [label="X[6] <= 834.8\nmse = 25.933\nsamples = 9\nvalue = 50.037"] ;
796 -> 797 ;
798 [label="X[5] <= 1052.9\nmse = 10.023\nsamples = 5\nvalue = 53.546"] ;
797 -> 798 ;
799 [label="X[7] <= 78.0\nmse = 8.774\nsamples = 4\nvalue = 54.412"] ;
798 -> 799 ;
800 [label="X[4] <= 10.65\nmse = 1.6\nsamples = 2\nvalue = 52.695"] ;
799 -> 800 ;
801 [label="mse = 0.0\nsamples = 1\nvalue = 53.96"] ;
800 -> 801 ;
802 [label="mse = 0.0\nsamples = 1\nvalue = 51.43"] ;
800 -> 802 ;
803 [label="X[5] <= 1047.95\nmse = 10.049\nsamples = 2\nvalue = 56.13"] ;
799 -> 803 ;
804 [label="mse = 0.0\nsamples = 1\nvalue = 52.96"] ;
803 -> 804 ;
805 [label="mse = 0.0\nsamples = 1\nvalue = 59.3"] ;
803 -> 805 ;
806 [label="mse = 0.0\nsamples = 1\nvalue = 50.08"] ;
798 -> 806 ;
807 [label="X[7] <= 78.0\nmse = 11.183\nsamples = 4\nvalue = 45.65"] ;
797 -> 807 ;
808 [label="X[2] <= 99.35\nmse = 1.113\nsamples = 2\nvalue = 43.085"] ;
807 -> 808 ;
809 [label="mse = 0.0\nsamples = 1\nvalue = 42.03"] ;
808 -> 809 ;
810 [label="mse = -0.0\nsamples = 1\nvalue = 44.14"] ;
808 -> 810 ;
811 [label="X[6] <= 894.4\nmse = 8.094\nsamples = 2\nvalue = 48.215"] ;
807 -> 811 ;
812 [label="mse = 0.0\nsamples = 1\nvalue = 51.06"] ;
811 -> 812 ;
813 [label="mse = -0.0\nsamples = 1\nvalue = 45.37"] ;
811 -> 813 ;
814 [label="X[3] <= 160.05\nmse = 9.206\nsamples = 8\nvalue = 55.952"] ;
796 -> 814 ;
815 [label="X[7] <= 78.0\nmse = 3.773\nsamples = 4\nvalue = 58.06"] ;
814 -> 815 ;
816 [label="X[0] <= 263.7\nmse = 0.26\nsamples = 2\nvalue = 56.34"] ;
815 -> 816 ;
817 [label="mse = 0.0\nsamples = 1\nvalue = 55.83"] ;
816 -> 817 ;
818 [label="mse = -0.0\nsamples = 1\nvalue = 56.85"] ;
816 -> 818 ;
819 [label="X[0] <= 263.7\nmse = 1.369\nsamples = 2\nvalue = 59.78"] ;
815 -> 819 ;
820 [label="mse = 0.0\nsamples = 1\nvalue = 60.95"] ;
819 -> 820 ;
821 [label="mse = 0.0\nsamples = 1\nvalue = 58.61"] ;
819 -> 821 ;
822 [label="X[7] <= 78.0\nmse = 5.756\nsamples = 4\nvalue = 53.845"] ;
814 -> 822 ;
823 [label="X[5] <= 998.35\nmse = 0.212\nsamples = 2\nvalue = 51.5"] ;
822 -> 823 ;
824 [label="mse = 0.0\nsamples = 1\nvalue = 51.04"] ;
823 -> 824 ;
825 [label="mse = 0.0\nsamples = 1\nvalue = 51.96"] ;
823 -> 825 ;
826 [label="X[4] <= 10.65\nmse = 0.303\nsamples = 2\nvalue = 56.19"] ;
822 -> 826 ;
827 [label="mse = 0.0\nsamples = 1\nvalue = 56.74"] ;
826 -> 827 ;
828 [label="mse = 0.0\nsamples = 1\nvalue = 55.64"] ;
826 -> 828 ;
829 [label="X[0] <= 232.85\nmse = 168.214\nsamples = 10\nvalue = 59.593"] ;
717 -> 829 ;
830 [label="X[6] <= 793.8\nmse = 150.29\nsamples = 5\nvalue = 51.496"] ;
829 -> 830 ;
831 [label="X[7] <= 42.0\nmse = 12.076\nsamples = 3\nvalue = 60.343"] ;
830 -> 831 ;
832 [label="mse = 0.0\nsamples = 1\nvalue = 55.51"] ;
831 -> 832 ;
833 [label="X[7] <= 78.0\nmse = 0.593\nsamples = 2\nvalue = 62.76"] ;
831 -> 833 ;
834 [label="mse = 0.0\nsamples = 1\nvalue = 61.99"] ;
833 -> 834 ;
835 [label="mse = -0.0\nsamples = 1\nvalue = 63.53"] ;
833 -> 835 ;
836 [label="X[7] <= 64.0\nmse = 64.08\nsamples = 2\nvalue = 38.225"] ;
830 -> 836 ;
837 [label="mse = 0.0\nsamples = 1\nvalue = 30.22"] ;
836 -> 837 ;
838 [label="mse = 0.0\nsamples = 1\nvalue = 46.23"] ;
836 -> 838 ;
839 [label="X[1] <= 117.4\nmse = 55.015\nsamples = 5\nvalue = 67.69"] ;
829 -> 839 ;
840 [label="X[7] <= 78.0\nmse = 6.992\nsamples = 4\nvalue = 64.175"] ;
839 -> 840 ;
841 [label="X[1] <= 48.9\nmse = 7.083\nsamples = 3\nvalue = 63.427"] ;
840 -> 841 ;
842 [label="mse = 0.0\nsamples = 1\nvalue = 60.32"] ;
841 -> 842 ;
843 [label="X[7] <= 42.0\nmse = 3.386\nsamples = 2\nvalue = 64.98"] ;
841 -> 843 ;
844 [label="mse = 0.0\nsamples = 1\nvalue = 63.14"] ;
843 -> 844 ;
845 [label="mse = 0.0\nsamples = 1\nvalue = 66.82"] ;
843 -> 845 ;
846 [label="mse = -0.0\nsamples = 1\nvalue = 66.42"] ;
840 -> 846 ;
847 [label="mse = -0.0\nsamples = 1\nvalue = 81.75"] ;
839 -> 847 ;
848 [label="X[7] <= 73.5\nmse = 47.836\nsamples = 13\nvalue = 63.039"] ;
636 -> 848 ;
849 [label="X[0] <= 267.5\nmse = 32.188\nsamples = 9\nvalue = 60.023"] ;
848 -> 849 ;
850 [label="mse = 0.0\nsamples = 1\nvalue = 67.87"] ;
849 -> 850 ;
851 [label="X[7] <= 42.0\nmse = 27.553\nsamples = 8\nvalue = 59.043"] ;
849 -> 851 ;
852 [label="X[1] <= 177.7\nmse = 19.541\nsamples = 5\nvalue = 56.29"] ;
851 -> 852 ;
853 [label="X[0] <= 325.8\nmse = 0.0\nsamples = 2\nvalue = 61.235"] ;
852 -> 853 ;
854 [label="mse = 0.0\nsamples = 1\nvalue = 61.24"] ;
853 -> 854 ;
855 [label="mse = 0.0\nsamples = 1\nvalue = 61.23"] ;
853 -> 855 ;
856 [label="X[0] <= 328.35\nmse = 5.399\nsamples = 3\nvalue = 52.993"] ;
852 -> 856 ;
857 [label="X[5] <= 941.55\nmse = 0.922\nsamples = 2\nvalue = 54.54"] ;
856 -> 857 ;
858 [label="mse = 0.0\nsamples = 1\nvalue = 55.5"] ;
857 -> 858 ;
859 [label="mse = 0.0\nsamples = 1\nvalue = 53.58"] ;
857 -> 859 ;
860 [label="mse = -0.0\nsamples = 1\nvalue = 49.9"] ;
856 -> 860 ;
861 [label="X[1] <= 200.75\nmse = 7.234\nsamples = 3\nvalue = 63.63"] ;
851 -> 861 ;
862 [label="mse = 0.0\nsamples = 1\nvalue = 59.89"] ;
861 -> 862 ;
863 [label="X[4] <= 11.45\nmse = 0.36\nsamples = 2\nvalue = 65.5"] ;
861 -> 863 ;
864 [label="mse = 0.0\nsamples = 1\nvalue = 64.9"] ;
863 -> 864 ;
865 [label="mse = 0.0\nsamples = 1\nvalue = 66.1"] ;
863 -> 865 ;
866 [label="X[0] <= 299.8\nmse = 16.532\nsamples = 4\nvalue = 69.825"] ;
848 -> 866 ;
867 [label="mse = 0.0\nsamples = 1\nvalue = 76.8"] ;
866 -> 867 ;
868 [label="X[6] <= 683.8\nmse = 0.42\nsamples = 3\nvalue = 67.5"] ;
866 -> 868 ;
869 [label="mse = 0.0\nsamples = 1\nvalue = 66.6"] ;
868 -> 869 ;
870 [label="X[6] <= 818.1\nmse = 0.023\nsamples = 2\nvalue = 67.95"] ;
868 -> 870 ;
871 [label="mse = 0.0\nsamples = 1\nvalue = 67.8"] ;
870 -> 871 ;
872 [label="mse = 0.0\nsamples = 1\nvalue = 68.1"] ;
870 -> 872 ;
873 [label="X[1] <= 14.3\nmse = 106.233\nsamples = 184\nvalue = 35.791"] ;
635 -> 873 ;
874 [label="X[5] <= 1077.1\nmse = 53.005\nsamples = 107\nvalue = 31.659"] ;
873 -> 874 ;
875 [label="X[6] <= 877.65\nmse = 37.582\nsamples = 94\nvalue = 33.254"] ;
874 -> 875 ;
876 [label="X[3] <= 195.35\nmse = 32.269\nsamples = 87\nvalue = 33.983"] ;
875 -> 876 ;
877 [label="X[7] <= 42.0\nmse = 26.815\nsamples = 54\nvalue = 36.163"] ;
876 -> 877 ;
878 [label="X[0] <= 315.5\nmse = 29.16\nsamples = 23\nvalue = 33.084"] ;
877 -> 878 ;
879 [label="X[4] <= 5.75\nmse = 5.827\nsamples = 10\nvalue = 29.043"] ;
878 -> 879 ;
880 [label="X[0] <= 231.05\nmse = 1.676\nsamples = 6\nvalue = 27.437"] ;
879 -> 880 ;
881 [label="mse = 0.0\nsamples = 1\nvalue = 24.9"] ;
880 -> 881 ;
882 [label="X[4] <= 5.4\nmse = 0.467\nsamples = 5\nvalue = 27.944"] ;
880 -> 882 ;
883 [label="X[0] <= 308.5\nmse = 0.076\nsamples = 4\nvalue = 27.625"] ;
882 -> 883 ;
884 [label="X[2] <= 47.85\nmse = 0.024\nsamples = 2\nvalue = 27.375"] ;
883 -> 884 ;
885 [label="mse = 0.0\nsamples = 1\nvalue = 27.53"] ;
884 -> 885 ;
886 [label="mse = -0.0\nsamples = 1\nvalue = 27.22"] ;
884 -> 886 ;
887 [label="X[5] <= 991.0\nmse = 0.002\nsamples = 2\nvalue = 27.875"] ;
883 -> 887 ;
888 [label="mse = 0.0\nsamples = 1\nvalue = 27.92"] ;
887 -> 888 ;
889 [label="mse = 0.0\nsamples = 1\nvalue = 27.83"] ;
887 -> 889 ;
890 [label="mse = 0.0\nsamples = 1\nvalue = 29.22"] ;
882 -> 890 ;
891 [label="X[5] <= 1036.0\nmse = 2.376\nsamples = 4\nvalue = 31.452"] ;
879 -> 891 ;
892 [label="X[4] <= 6.1\nmse = 1.7\nsamples = 3\nvalue = 30.847"] ;
891 -> 892 ;
893 [label="mse = 0.0\nsamples = 1\nvalue = 29.65"] ;
892 -> 893 ;
894 [label="X[0] <= 244.75\nmse = 1.476\nsamples = 2\nvalue = 31.445"] ;
892 -> 894 ;
895 [label="mse = 0.0\nsamples = 1\nvalue = 30.23"] ;
894 -> 895 ;
896 [label="mse = 0.0\nsamples = 1\nvalue = 32.66"] ;
894 -> 896 ;
897 [label="mse = -0.0\nsamples = 1\nvalue = 33.27"] ;
891 -> 897 ;
898 [label="X[4] <= 1.5\nmse = 24.881\nsamples = 13\nvalue = 36.193"] ;
878 -> 898 ;
899 [label="X[0] <= 344.1\nmse = 1.168\nsamples = 7\nvalue = 32.073"] ;
898 -> 899 ;
900 [label="X[0] <= 328.0\nmse = 0.24\nsamples = 5\nvalue = 31.5"] ;
899 -> 900 ;
901 [label="mse = 0.0\nsamples = 1\nvalue = 30.57"] ;
900 -> 901 ;
902 [label="X[5] <= 1001.5\nmse = 0.03\nsamples = 4\nvalue = 31.732"] ;
900 -> 902 ;
903 [label="mse = 0.0\nsamples = 1\nvalue = 31.45"] ;
902 -> 903 ;
904 [label="X[6] <= 787.65\nmse = 0.004\nsamples = 3\nvalue = 31.827"] ;
902 -> 904 ;
905 [label="X[5] <= 1069.1\nmse = 0.001\nsamples = 2\nvalue = 31.87"] ;
904 -> 905 ;
906 [label="mse = 0.0\nsamples = 1\nvalue = 31.84"] ;
905 -> 906 ;
907 [label="mse = 0.0\nsamples = 1\nvalue = 31.9"] ;
905 -> 907 ;
908 [label="mse = 0.0\nsamples = 1\nvalue = 31.74"] ;
904 -> 908 ;
909 [label="X[0] <= 349.5\nmse = 0.616\nsamples = 2\nvalue = 33.505"] ;
899 -> 909 ;
910 [label="mse = 0.0\nsamples = 1\nvalue = 32.72"] ;
909 -> 910 ;
911 [label="mse = 0.0\nsamples = 1\nvalue = 34.29"] ;
909 -> 911 ;
912 [label="X[6] <= 798.4\nmse = 9.635\nsamples = 6\nvalue = 41.0"] ;
898 -> 912 ;
913 [label="X[0] <= 338.65\nmse = 3.249\nsamples = 4\nvalue = 39.068"] ;
912 -> 913 ;
914 [label="X[4] <= 11.25\nmse = 0.0\nsamples = 2\nvalue = 37.265"] ;
913 -> 914 ;
915 [label="mse = 0.0\nsamples = 1\nvalue = 37.26"] ;
914 -> 915 ;
916 [label="mse = -0.0\nsamples = 1\nvalue = 37.27"] ;
914 -> 916 ;
917 [label="mse = -0.0\nsamples = 2\nvalue = 40.87"] ;
913 -> 917 ;
918 [label="X[6] <= 816.9\nmse = 0.0\nsamples = 2\nvalue = 44.865"] ;
912 -> 918 ;
919 [label="mse = 0.0\nsamples = 1\nvalue = 44.87"] ;
918 -> 919 ;
920 [label="mse = 0.0\nsamples = 1\nvalue = 44.86"] ;
918 -> 920 ;
921 [label="X[5] <= 974.0\nmse = 12.826\nsamples = 31\nvalue = 38.447"] ;
877 -> 921 ;
922 [label="X[5] <= 962.0\nmse = 15.27\nsamples = 16\nvalue = 36.824"] ;
921 -> 922 ;
923 [label="X[7] <= 73.0\nmse = 1.919\nsamples = 6\nvalue = 40.458"] ;
922 -> 923 ;
924 [label="X[5] <= 953.4\nmse = 0.367\nsamples = 3\nvalue = 39.187"] ;
923 -> 924 ;
925 [label="X[5] <= 949.4\nmse = 0.001\nsamples = 2\nvalue = 39.615"] ;
924 -> 925 ;
926 [label="mse = 0.0\nsamples = 1\nvalue = 39.64"] ;
925 -> 926 ;
927 [label="mse = 0.0\nsamples = 1\nvalue = 39.59"] ;
925 -> 927 ;
928 [label="mse = -0.0\nsamples = 1\nvalue = 38.33"] ;
924 -> 928 ;
929 [label="X[3] <= 189.6\nmse = 0.237\nsamples = 3\nvalue = 41.73"] ;
923 -> 929 ;
930 [label="mse = 0.0\nsamples = 1\nvalue = 42.35"] ;
929 -> 930 ;
931 [label="X[5] <= 940.05\nmse = 0.068\nsamples = 2\nvalue = 41.42"] ;
929 -> 931 ;
932 [label="mse = 0.0\nsamples = 1\nvalue = 41.68"] ;
931 -> 932 ;
933 [label="mse = -0.0\nsamples = 1\nvalue = 41.16"] ;
931 -> 933 ;
934 [label="X[7] <= 95.0\nmse = 10.603\nsamples = 10\nvalue = 34.644"] ;
922 -> 934 ;
935 [label="X[5] <= 967.55\nmse = 2.008\nsamples = 3\nvalue = 31.207"] ;
934 -> 935 ;
936 [label="mse = 0.0\nsamples = 1\nvalue = 29.45"] ;
935 -> 936 ;
937 [label="X[3] <= 192.0\nmse = 0.697\nsamples = 2\nvalue = 32.085"] ;
935 -> 937 ;
938 [label="mse = 0.0\nsamples = 1\nvalue = 31.25"] ;
937 -> 938 ;
939 [label="mse = 0.0\nsamples = 1\nvalue = 32.92"] ;
937 -> 939 ;
940 [label="X[6] <= 863.15\nmse = 7.053\nsamples = 7\nvalue = 36.117"] ;
934 -> 940 ;
941 [label="X[5] <= 969.0\nmse = 4.127\nsamples = 6\nvalue = 35.352"] ;
940 -> 941 ;
942 [label="X[0] <= 292.0\nmse = 1.907\nsamples = 4\nvalue = 34.168"] ;
941 -> 942 ;
943 [label="X[7] <= 270.0\nmse = 0.469\nsamples = 2\nvalue = 33.015"] ;
942 -> 943 ;
944 [label="mse = 0.0\nsamples = 1\nvalue = 32.33"] ;
943 -> 944 ;
945 [label="mse = 0.0\nsamples = 1\nvalue = 33.7"] ;
943 -> 945 ;
946 [label="X[7] <= 272.5\nmse = 0.689\nsamples = 2\nvalue = 35.32"] ;
942 -> 946 ;
947 [label="mse = 0.0\nsamples = 1\nvalue = 34.49"] ;
946 -> 947 ;
948 [label="mse = -0.0\nsamples = 1\nvalue = 36.15"] ;
946 -> 948 ;
949 [label="X[7] <= 270.0\nmse = 0.152\nsamples = 2\nvalue = 37.72"] ;
941 -> 949 ;
950 [label="mse = 0.0\nsamples = 1\nvalue = 37.33"] ;
949 -> 950 ;
951 [label="mse = 0.0\nsamples = 1\nvalue = 38.11"] ;
949 -> 951 ;
952 [label="mse = -0.0\nsamples = 1\nvalue = 40.71"] ;
940 -> 952 ;
953 [label="X[7] <= 95.0\nmse = 4.415\nsamples = 15\nvalue = 40.178"] ;
921 -> 953 ;
954 [label="X[5] <= 1036.0\nmse = 1.347\nsamples = 5\nvalue = 38.056"] ;
953 -> 954 ;
955 [label="X[4] <= 2.9\nmse = 0.289\nsamples = 3\nvalue = 37.173"] ;
954 -> 955 ;
956 [label="mse = 0.0\nsamples = 1\nvalue = 37.91"] ;
955 -> 956 ;
957 [label="X[4] <= 6.1\nmse = 0.027\nsamples = 2\nvalue = 36.805"] ;
955 -> 957 ;
958 [label="mse = 0.0\nsamples = 1\nvalue = 36.97"] ;
957 -> 958 ;
959 [label="mse = 0.0\nsamples = 1\nvalue = 36.64"] ;
957 -> 959 ;
960 [label="X[4] <= 2.9\nmse = 0.012\nsamples = 2\nvalue = 39.38"] ;
954 -> 960 ;
961 [label="mse = 0.0\nsamples = 1\nvalue = 39.49"] ;
960 -> 961 ;
962 [label="mse = 0.0\nsamples = 1\nvalue = 39.27"] ;
960 -> 962 ;
963 [label="X[4] <= 6.25\nmse = 2.571\nsamples = 10\nvalue = 41.239"] ;
953 -> 963 ;
964 [label="X[6] <= 827.5\nmse = 1.767\nsamples = 9\nvalue = 40.909"] ;
963 -> 964 ;
965 [label="X[3] <= 184.4\nmse = 1.302\nsamples = 8\nvalue = 41.185"] ;
964 -> 965 ;
966 [label="mse = 0.0\nsamples = 1\nvalue = 39.61"] ;
965 -> 966 ;
967 [label="X[3] <= 190.25\nmse = 1.083\nsamples = 7\nvalue = 41.41"] ;
965 -> 967 ;
968 [label="mse = 0.0\nsamples = 1\nvalue = 43.58"] ;
967 -> 968 ;
969 [label="X[7] <= 270.0\nmse = 0.347\nsamples = 6\nvalue = 41.048"] ;
967 -> 969 ;
970 [label="X[2] <= 118.25\nmse = 0.118\nsamples = 4\nvalue = 40.73"] ;
969 -> 970 ;
971 [label="X[7] <= 150.0\nmse = 0.008\nsamples = 3\nvalue = 40.923"] ;
970 -> 971 ;
972 [label="mse = 0.0\nsamples = 2\nvalue = 40.86"] ;
971 -> 972 ;
973 [label="mse = 0.0\nsamples = 1\nvalue = 41.05"] ;
971 -> 973 ;
974 [label="mse = -0.0\nsamples = 1\nvalue = 40.15"] ;
970 -> 974 ;
975 [label="X[0] <= 340.0\nmse = 0.198\nsamples = 2\nvalue = 41.685"] ;
969 -> 975 ;
976 [label="mse = 0.0\nsamples = 1\nvalue = 41.24"] ;
975 -> 976 ;
977 [label="mse = -0.0\nsamples = 1\nvalue = 42.13"] ;
975 -> 977 ;
978 [label="mse = 0.0\nsamples = 1\nvalue = 38.7"] ;
964 -> 978 ;
979 [label="mse = 0.0\nsamples = 1\nvalue = 44.21"] ;
963 -> 979 ;
980 [label="X[1] <= 5.5\nmse = 20.696\nsamples = 33\nvalue = 30.416"] ;
876 -> 980 ;
981 [label="X[2] <= 123.0\nmse = 17.819\nsamples = 31\nvalue = 30.92"] ;
980 -> 981 ;
982 [label="X[2] <= 119.05\nmse = 12.89\nsamples = 29\nvalue = 30.29"] ;
981 -> 982 ;
983 [label="X[6] <= 790.5\nmse = 10.535\nsamples = 27\nvalue = 30.767"] ;
982 -> 983 ;
984 [label="X[7] <= 95.0\nmse = 9.371\nsamples = 18\nvalue = 31.747"] ;
983 -> 984 ;
985 [label="X[5] <= 971.0\nmse = 4.46\nsamples = 14\nvalue = 30.575"] ;
984 -> 985 ;
986 [label="X[6] <= 724.6\nmse = 0.611\nsamples = 9\nvalue = 31.484"] ;
985 -> 986 ;
987 [label="mse = 0.0\nsamples = 2\nvalue = 30.12"] ;
986 -> 987 ;
988 [label="X[3] <= 215.5\nmse = 0.102\nsamples = 7\nvalue = 31.874"] ;
986 -> 988 ;
989 [label="X[0] <= 285.5\nmse = 0.027\nsamples = 5\nvalue = 32.056"] ;
988 -> 989 ;
990 [label="X[4] <= 10.8\nmse = 0.0\nsamples = 2\nvalue = 32.245"] ;
989 -> 990 ;
991 [label="mse = 0.0\nsamples = 1\nvalue = 32.25"] ;
990 -> 991 ;
992 [label="mse = -0.0\nsamples = 1\nvalue = 32.24"] ;
990 -> 992 ;
993 [label="X[4] <= 5.5\nmse = 0.006\nsamples = 3\nvalue = 31.93"] ;
989 -> 993 ;
994 [label="mse = 0.0\nsamples = 1\nvalue = 32.04"] ;
993 -> 994 ;
995 [label="X[0] <= 298.1\nmse = 0.0\nsamples = 2\nvalue = 31.875"] ;
993 -> 995 ;
996 [label="mse = 0.0\nsamples = 1\nvalue = 31.87"] ;
995 -> 996 ;
997 [label="mse = 0.0\nsamples = 1\nvalue = 31.88"] ;
995 -> 997 ;
998 [label="mse = -0.0\nsamples = 2\nvalue = 31.42"] ;
988 -> 998 ;
999 [label="X[7] <= 42.0\nmse = 7.22\nsamples = 5\nvalue = 28.938"] ;
985 -> 999 ;
1000 [label="X[0] <= 290.0\nmse = 2.045\nsamples = 2\nvalue = 25.91"] ;
999 -> 1000 ;
1001 [label="mse = 0.0\nsamples = 1\nvalue = 24.48"] ;
1000 -> 1001 ;
1002 [label="mse = 0.0\nsamples = 1\nvalue = 27.34"] ;
1000 -> 1002 ;
1003 [label="X[2] <= 59.15\nmse = 0.483\nsamples = 3\nvalue = 30.957"] ;
999 -> 1003 ;
1004 [label="X[7] <= 73.0\nmse = 0.469\nsamples = 2\nvalue = 30.665"] ;
1003 -> 1004 ;
1005 [label="mse = 0.0\nsamples = 1\nvalue = 29.98"] ;
1004 -> 1005 ;
1006 [label="mse = 0.0\nsamples = 1\nvalue = 31.35"] ;
1004 -> 1006 ;
1007 [label="mse = 0.0\nsamples = 1\nvalue = 31.54"] ;
1003 -> 1007 ;
1008 [label="X[5] <= 971.0\nmse = 4.915\nsamples = 4\nvalue = 35.85"] ;
984 -> 1008 ;
1009 [label="X[7] <= 272.5\nmse = 1.488\nsamples = 2\nvalue = 37.67"] ;
1008 -> 1009 ;
1010 [label="mse = 0.0\nsamples = 1\nvalue = 36.45"] ;
1009 -> 1010 ;
1011 [label="mse = -0.0\nsamples = 1\nvalue = 38.89"] ;
1009 -> 1011 ;
1012 [label="X[3] <= 199.25\nmse = 1.716\nsamples = 2\nvalue = 34.03"] ;
1008 -> 1012 ;
1013 [label="mse = 0.0\nsamples = 1\nvalue = 35.34"] ;
1012 -> 1013 ;
1014 [label="mse = 0.0\nsamples = 1\nvalue = 32.72"] ;
1012 -> 1014 ;
1015 [label="X[4] <= 2.3\nmse = 7.102\nsamples = 9\nvalue = 28.808"] ;
983 -> 1015 ;
1016 [label="X[7] <= 135.0\nmse = 2.629\nsamples = 6\nvalue = 27.645"] ;
1015 -> 1016 ;
1017 [label="X[3] <= 200.5\nmse = 0.774\nsamples = 2\nvalue = 26.06"] ;
1016 -> 1017 ;
1018 [label="mse = 0.0\nsamples = 1\nvalue = 26.94"] ;
1017 -> 1018 ;
1019 [label="mse = -0.0\nsamples = 1\nvalue = 25.18"] ;
1017 -> 1019 ;
1020 [label="X[7] <= 272.5\nmse = 1.673\nsamples = 4\nvalue = 28.437"] ;
1016 -> 1020 ;
1021 [label="X[6] <= 808.5\nmse = 1.417\nsamples = 3\nvalue = 27.987"] ;
1020 -> 1021 ;
1022 [label="mse = 0.0\nsamples = 1\nvalue = 29.59"] ;
1021 -> 1022 ;
1023 [label="X[3] <= 200.5\nmse = 0.198\nsamples = 2\nvalue = 27.185"] ;
1021 -> 1023 ;
1024 [label="mse = 0.0\nsamples = 1\nvalue = 27.63"] ;
1023 -> 1024 ;
1025 [label="mse = 0.0\nsamples = 1\nvalue = 26.74"] ;
1023 -> 1025 ;
1026 [label="mse = -0.0\nsamples = 1\nvalue = 29.79"] ;
1020 -> 1026 ;
1027 [label="X[7] <= 78.0\nmse = 7.936\nsamples = 3\nvalue = 31.133"] ;
1015 -> 1027 ;
1028 [label="X[6] <= 832.8\nmse = 3.098\nsamples = 2\nvalue = 29.42"] ;
1027 -> 1028 ;
1029 [label="mse = 0.0\nsamples = 1\nvalue = 31.18"] ;
1028 -> 1029 ;
1030 [label="mse = -0.0\nsamples = 1\nvalue = 27.66"] ;
1028 -> 1030 ;
1031 [label="mse = 0.0\nsamples = 1\nvalue = 34.56"] ;
1027 -> 1031 ;
1032 [label="mse = -0.0\nsamples = 2\nvalue = 23.84"] ;
982 -> 1032 ;
1033 [label="mse = -0.0\nsamples = 2\nvalue = 40.06"] ;
981 -> 1033 ;
1034 [label="X[7] <= 42.0\nmse = 0.41\nsamples = 2\nvalue = 22.61"] ;
980 -> 1034 ;
1035 [label="mse = 0.0\nsamples = 1\nvalue = 21.97"] ;
1034 -> 1035 ;
1036 [label="mse = 0.0\nsamples = 1\nvalue = 23.25"] ;
1034 -> 1036 ;
1037 [label="X[0] <= 272.0\nmse = 14.977\nsamples = 7\nvalue = 24.197"] ;
875 -> 1037 ;
1038 [label="X[7] <= 135.0\nmse = 4.775\nsamples = 5\nvalue = 22.348"] ;
1037 -> 1038 ;
1039 [label="X[7] <= 59.0\nmse = 2.213\nsamples = 3\nvalue = 20.853"] ;
1038 -> 1039 ;
1040 [label="mse = 0.0\nsamples = 1\nvalue = 18.75"] ;
1039 -> 1040 ;
1041 [label="X[3] <= 193.0\nmse = 0.002\nsamples = 2\nvalue = 21.905"] ;
1039 -> 1041 ;
1042 [label="mse = 0.0\nsamples = 1\nvalue = 21.86"] ;
1041 -> 1042 ;
1043 [label="mse = -0.0\nsamples = 1\nvalue = 21.95"] ;
1041 -> 1043 ;
1044 [label="X[7] <= 272.5\nmse = 0.24\nsamples = 2\nvalue = 24.59"] ;
1038 -> 1044 ;
1045 [label="mse = 0.0\nsamples = 1\nvalue = 24.1"] ;
1044 -> 1045 ;
1046 [label="mse = 0.0\nsamples = 1\nvalue = 25.08"] ;
1044 -> 1046 ;
1047 [label="X[7] <= 59.0\nmse = 10.563\nsamples = 2\nvalue = 28.82"] ;
1037 -> 1047 ;
1048 [label="mse = 0.0\nsamples = 1\nvalue = 25.57"] ;
1047 -> 1048 ;
1049 [label="mse = 0.0\nsamples = 1\nvalue = 32.07"] ;
1047 -> 1049 ;
1050 [label="X[5] <= 1107.5\nmse = 12.986\nsamples = 13\nvalue = 20.121"] ;
874 -> 1050 ;
1051 [label="X[5] <= 1095.7\nmse = 3.005\nsamples = 6\nvalue = 23.31"] ;
1050 -> 1051 ;
1052 [label="X[6] <= 767.0\nmse = 2.144\nsamples = 4\nvalue = 24.138"] ;
1051 -> 1052 ;
1053 [label="mse = 0.0\nsamples = 1\nvalue = 21.65"] ;
1052 -> 1053 ;
1054 [label="X[5] <= 1089.0\nmse = 0.109\nsamples = 3\nvalue = 24.967"] ;
1052 -> 1054 ;
1055 [label="mse = 0.0\nsamples = 1\nvalue = 24.5"] ;
1054 -> 1055 ;
1056 [label="X[6] <= 769.15\nmse = 0.0\nsamples = 2\nvalue = 25.2"] ;
1054 -> 1056 ;
1057 [label="mse = 0.0\nsamples = 1\nvalue = 25.18"] ;
1056 -> 1057 ;
1058 [label="mse = -0.0\nsamples = 1\nvalue = 25.22"] ;
1056 -> 1058 ;
1059 [label="X[5] <= 1102.0\nmse = 0.616\nsamples = 2\nvalue = 21.655"] ;
1051 -> 1059 ;
1060 [label="mse = 0.0\nsamples = 1\nvalue = 20.87"] ;
1059 -> 1060 ;
1061 [label="mse = 0.0\nsamples = 1\nvalue = 22.44"] ;
1059 -> 1061 ;
1062 [label="X[6] <= 839.0\nmse = 5.351\nsamples = 7\nvalue = 17.387"] ;
1050 -> 1062 ;
1063 [label="X[0] <= 245.05\nmse = 1.111\nsamples = 6\nvalue = 18.243"] ;
1062 -> 1063 ;
1064 [label="X[6] <= 811.15\nmse = 0.009\nsamples = 4\nvalue = 17.5"] ;
1063 -> 1064 ;
1065 [label="X[6] <= 789.15\nmse = 0.0\nsamples = 3\nvalue = 17.553"] ;
1064 -> 1065 ;
1066 [label="mse = 0.0\nsamples = 2\nvalue = 17.54"] ;
1065 -> 1066 ;
1067 [label="mse = 0.0\nsamples = 1\nvalue = 17.58"] ;
1065 -> 1067 ;
1068 [label="mse = -0.0\nsamples = 1\nvalue = 17.34"] ;
1064 -> 1068 ;
1069 [label="X[6] <= 784.15\nmse = 0.002\nsamples = 2\nvalue = 19.73"] ;
1063 -> 1069 ;
1070 [label="mse = 0.0\nsamples = 1\nvalue = 19.69"] ;
1069 -> 1070 ;
1071 [label="mse = -0.0\nsamples = 1\nvalue = 19.77"] ;
1069 -> 1071 ;
1072 [label="mse = 0.0\nsamples = 1\nvalue = 12.25"] ;
1062 -> 1072 ;
1073 [label="X[0] <= 265.5\nmse = 123.498\nsamples = 77\nvalue = 41.533"] ;
873 -> 1073 ;
1074 [label="X[7] <= 42.0\nmse = 78.758\nsamples = 47\nvalue = 36.895"] ;
1073 -> 1074 ;
1075 [label="X[0] <= 188.1\nmse = 45.861\nsamples = 28\nvalue = 31.982"] ;
1074 -> 1075 ;
1076 [label="X[0] <= 166.9\nmse = 20.199\nsamples = 7\nvalue = 24.633"] ;
1075 -> 1076 ;
1077 [label="mse = 0.0\nsamples = 1\nvalue = 33.95"] ;
1076 -> 1077 ;
1078 [label="X[0] <= 185.1\nmse = 6.685\nsamples = 6\nvalue = 23.08"] ;
1076 -> 1078 ;
1079 [label="X[5] <= 992.9\nmse = 0.815\nsamples = 5\nvalue = 24.176"] ;
1078 -> 1079 ;
1080 [label="X[6] <= 629.5\nmse = 0.264\nsamples = 4\nvalue = 23.787"] ;
1079 -> 1080 ;
1081 [label="mse = 0.0\nsamples = 1\nvalue = 22.93"] ;
1080 -> 1081 ;
1082 [label="X[6] <= 828.4\nmse = 0.026\nsamples = 3\nvalue = 24.073"] ;
1080 -> 1082 ;
1083 [label="X[1] <= 154.8\nmse = 0.006\nsamples = 2\nvalue = 23.97"] ;
1082 -> 1083 ;
1084 [label="mse = 0.0\nsamples = 1\nvalue = 24.05"] ;
1083 -> 1084 ;
1085 [label="mse = 0.0\nsamples = 1\nvalue = 23.89"] ;
1083 -> 1085 ;
1086 [label="mse = 0.0\nsamples = 1\nvalue = 24.28"] ;
1082 -> 1086 ;
1087 [label="mse = 0.0\nsamples = 1\nvalue = 25.73"] ;
1079 -> 1087 ;
1088 [label="mse = 0.0\nsamples = 1\nvalue = 17.6"] ;
1078 -> 1088 ;
1089 [label="X[5] <= 1060.4\nmse = 30.407\nsamples = 21\nvalue = 34.432"] ;
1075 -> 1089 ;
1090 [label="X[0] <= 262.75\nmse = 25.251\nsamples = 20\nvalue = 33.868"] ;
1089 -> 1090 ;
1091 [label="X[6] <= 692.15\nmse = 20.791\nsamples = 18\nvalue = 33.016"] ;
1090 -> 1091 ;
1092 [label="X[6] <= 629.15\nmse = 15.003\nsamples = 5\nvalue = 37.578"] ;
1091 -> 1092 ;
1093 [label="mse = 0.0\nsamples = 1\nvalue = 30.08"] ;
1092 -> 1093 ;
1094 [label="X[5] <= 966.4\nmse = 1.185\nsamples = 4\nvalue = 39.452"] ;
1092 -> 1094 ;
1095 [label="X[5] <= 936.8\nmse = 0.381\nsamples = 3\nvalue = 40.0"] ;
1094 -> 1095 ;
1096 [label="mse = 0.0\nsamples = 1\nvalue = 40.86"] ;
1095 -> 1096 ;
1097 [label="X[0] <= 233.8\nmse = 0.017\nsamples = 2\nvalue = 39.57"] ;
1095 -> 1097 ;
1098 [label="mse = 0.0\nsamples = 1\nvalue = 39.7"] ;
1097 -> 1098 ;
1099 [label="mse = 0.0\nsamples = 1\nvalue = 39.44"] ;
1097 -> 1099 ;
1100 [label="mse = -0.0\nsamples = 1\nvalue = 37.81"] ;
1094 -> 1100 ;
1101 [label="X[5] <= 1033.6\nmse = 11.934\nsamples = 13\nvalue = 31.262"] ;
1091 -> 1101 ;
1102 [label="X[1] <= 94.5\nmse = 8.817\nsamples = 11\nvalue = 32.158"] ;
1101 -> 1102 ;
1103 [label="mse = 0.0\nsamples = 2\nvalue = 28.63"] ;
1102 -> 1103 ;
1104 [label="X[6] <= 823.45\nmse = 7.395\nsamples = 9\nvalue = 32.942"] ;
1102 -> 1104 ;
1105 [label="X[0] <= 235.0\nmse = 4.912\nsamples = 8\nvalue = 33.558"] ;
1104 -> 1105 ;
1106 [label="X[5] <= 989.6\nmse = 11.122\nsamples = 2\nvalue = 35.965"] ;
1105 -> 1106 ;
1107 [label="mse = 0.0\nsamples = 1\nvalue = 39.3"] ;
1106 -> 1107 ;
1108 [label="mse = -0.0\nsamples = 1\nvalue = 32.63"] ;
1106 -> 1108 ;
1109 [label="X[0] <= 253.8\nmse = 0.266\nsamples = 6\nvalue = 32.755"] ;
1105 -> 1109 ;
1110 [label="X[4] <= 4.0\nmse = 0.06\nsamples = 3\nvalue = 33.227"] ;
1109 -> 1110 ;
1111 [label="mse = 0.0\nsamples = 1\nvalue = 32.88"] ;
1110 -> 1111 ;
1112 [label="mse = -0.0\nsamples = 2\nvalue = 33.4"] ;
1110 -> 1112 ;
1113 [label="X[2] <= 39.0\nmse = 0.027\nsamples = 3\nvalue = 32.283"] ;
1109 -> 1113 ;
1114 [label="mse = 0.0\nsamples = 1\nvalue = 32.05"] ;
1113 -> 1114 ;
1115 [label="mse = 0.0\nsamples = 2\nvalue = 32.4"] ;
1113 -> 1115 ;
1116 [label="mse = 0.0\nsamples = 1\nvalue = 28.02"] ;
1104 -> 1116 ;
1117 [label="X[6] <= 739.3\nmse = 0.336\nsamples = 2\nvalue = 26.33"] ;
1101 -> 1117 ;
1118 [label="mse = 0.0\nsamples = 1\nvalue = 26.91"] ;
1117 -> 1118 ;
1119 [label="mse = 0.0\nsamples = 1\nvalue = 25.75"] ;
1117 -> 1119 ;
1120 [label="mse = 0.0\nsamples = 2\nvalue = 41.54"] ;
1090 -> 1120 ;
1121 [label="mse = 0.0\nsamples = 1\nvalue = 45.71"] ;
1089 -> 1121 ;
1122 [label="X[6] <= 612.0\nmse = 39.268\nsamples = 19\nvalue = 44.134"] ;
1074 -> 1122 ;
1123 [label="X[7] <= 135.0\nmse = 5.77\nsamples = 3\nvalue = 36.123"] ;
1122 -> 1123 ;
1124 [label="mse = 0.0\nsamples = 1\nvalue = 33.12"] ;
1123 -> 1124 ;
1125 [label="X[7] <= 272.5\nmse = 1.891\nsamples = 2\nvalue = 37.625"] ;
1123 -> 1125 ;
1126 [label="mse = 0.0\nsamples = 1\nvalue = 36.25"] ;
1125 -> 1126 ;
1127 [label="mse = 0.0\nsamples = 1\nvalue = 39.0"] ;
1125 -> 1127 ;
1128 [label="X[6] <= 795.85\nmse = 31.261\nsamples = 16\nvalue = 45.636"] ;
1122 -> 1128 ;
1129 [label="X[4] <= 6.8\nmse = 14.707\nsamples = 11\nvalue = 48.249"] ;
1128 -> 1129 ;
1130 [label="X[5] <= 973.0\nmse = 12.897\nsamples = 9\nvalue = 47.341"] ;
1129 -> 1130 ;
1131 [label="X[1] <= 239.0\nmse = 3.59\nsamples = 5\nvalue = 49.592"] ;
1130 -> 1131 ;
1132 [label="X[7] <= 225.0\nmse = 2.548\nsamples = 3\nvalue = 48.457"] ;
1131 -> 1132 ;
1133 [label="X[7] <= 135.0\nmse = 0.181\nsamples = 2\nvalue = 47.355"] ;
1132 -> 1133 ;
1134 [label="mse = 0.0\nsamples = 1\nvalue = 47.78"] ;
1133 -> 1134 ;
1135 [label="mse = 0.0\nsamples = 1\nvalue = 46.93"] ;
1133 -> 1135 ;
1136 [label="mse = 0.0\nsamples = 1\nvalue = 50.66"] ;
1132 -> 1136 ;
1137 [label="X[5] <= 946.6\nmse = 0.319\nsamples = 2\nvalue = 51.295"] ;
1131 -> 1137 ;
1138 [label="mse = 0.0\nsamples = 1\nvalue = 50.73"] ;
1137 -> 1138 ;
1139 [label="mse = 0.0\nsamples = 1\nvalue = 51.86"] ;
1137 -> 1139 ;
1140 [label="X[0] <= 212.9\nmse = 10.281\nsamples = 4\nvalue = 44.528"] ;
1130 -> 1140 ;
1141 [label="X[5] <= 974.5\nmse = 3.744\nsamples = 2\nvalue = 41.635"] ;
1140 -> 1141 ;
1142 [label="mse = 0.0\nsamples = 1\nvalue = 39.7"] ;
1141 -> 1142 ;
1143 [label="mse = -0.0\nsamples = 1\nvalue = 43.57"] ;
1141 -> 1143 ;
1144 [label="X[2] <= 12.25\nmse = 0.084\nsamples = 2\nvalue = 47.42"] ;
1140 -> 1144 ;
1145 [label="mse = 0.0\nsamples = 1\nvalue = 47.71"] ;
1144 -> 1145 ;
1146 [label="mse = -0.0\nsamples = 1\nvalue = 47.13"] ;
1144 -> 1146 ;
1147 [label="X[7] <= 78.0\nmse = 2.449\nsamples = 2\nvalue = 52.335"] ;
1129 -> 1147 ;
1148 [label="mse = 0.0\nsamples = 1\nvalue = 50.77"] ;
1147 -> 1148 ;
1149 [label="mse = 0.0\nsamples = 1\nvalue = 53.9"] ;
1147 -> 1149 ;
1150 [label="X[1] <= 124.2\nmse = 19.617\nsamples = 5\nvalue = 39.888"] ;
1128 -> 1150 ;
1151 [label="mse = 0.0\nsamples = 1\nvalue = 32.1"] ;
1150 -> 1151 ;
1152 [label="X[7] <= 270.0\nmse = 5.567\nsamples = 4\nvalue = 41.835"] ;
1150 -> 1152 ;
1153 [label="X[0] <= 199.3\nmse = 4.722\nsamples = 3\nvalue = 41.013"] ;
1152 -> 1153 ;
1154 [label="X[7] <= 135.0\nmse = 3.331\nsamples = 2\nvalue = 39.895"] ;
1153 -> 1154 ;
1155 [label="mse = 0.0\nsamples = 1\nvalue = 38.07"] ;
1154 -> 1155 ;
1156 [label="mse = 0.0\nsamples = 1\nvalue = 41.72"] ;
1154 -> 1156 ;
1157 [label="mse = -0.0\nsamples = 1\nvalue = 43.25"] ;
1153 -> 1157 ;
1158 [label="mse = 0.0\nsamples = 1\nvalue = 44.3"] ;
1152 -> 1158 ;
1159 [label="X[1] <= 243.15\nmse = 107.079\nsamples = 30\nvalue = 48.8"] ;
1073 -> 1159 ;
1160 [label="X[6] <= 771.0\nmse = 51.369\nsamples = 28\nvalue = 46.754"] ;
1159 -> 1160 ;
1161 [label="X[7] <= 135.0\nmse = 43.923\nsamples = 25\nvalue = 45.546"] ;
1160 -> 1161 ;
1162 [label="X[5] <= 982.6\nmse = 41.074\nsamples = 20\nvalue = 43.955"] ;
1161 -> 1162 ;
1163 [label="X[6] <= 719.9\nmse = 36.635\nsamples = 19\nvalue = 44.53"] ;
1162 -> 1163 ;
1164 [label="X[3] <= 186.8\nmse = 27.832\nsamples = 15\nvalue = 45.914"] ;
1163 -> 1164 ;
1165 [label="X[4] <= 8.25\nmse = 0.0\nsamples = 2\nvalue = 52.425"] ;
1164 -> 1165 ;
1166 [label="mse = 0.0\nsamples = 1\nvalue = 52.42"] ;
1165 -> 1166 ;
1167 [label="mse = 0.0\nsamples = 1\nvalue = 52.43"] ;
1165 -> 1167 ;
1168 [label="X[5] <= 891.2\nmse = 24.589\nsamples = 13\nvalue = 44.912"] ;
1164 -> 1168 ;
1169 [label="mse = 0.0\nsamples = 1\nvalue = 53.52"] ;
1168 -> 1169 ;
1170 [label="X[1] <= 90.5\nmse = 19.949\nsamples = 12\nvalue = 44.195"] ;
1168 -> 1170 ;
1171 [label="X[5] <= 949.5\nmse = 5.24\nsamples = 4\nvalue = 47.948"] ;
1170 -> 1171 ;
1172 [label="X[7] <= 59.0\nmse = 1.171\nsamples = 3\nvalue = 49.153"] ;
1171 -> 1172 ;
1173 [label="mse = 0.0\nsamples = 1\nvalue = 47.81"] ;
1172 -> 1173 ;
1174 [label="X[0] <= 323.0\nmse = 0.403\nsamples = 2\nvalue = 49.825"] ;
1172 -> 1174 ;
1175 [label="mse = 0.0\nsamples = 1\nvalue = 49.19"] ;
1174 -> 1175 ;
1176 [label="mse = -0.0\nsamples = 1\nvalue = 50.46"] ;
1174 -> 1176 ;
1177 [label="mse = -0.0\nsamples = 1\nvalue = 44.33"] ;
1171 -> 1177 ;
1178 [label="X[3] <= 206.75\nmse = 16.743\nsamples = 8\nvalue = 42.319"] ;
1170 -> 1178 ;
1179 [label="X[7] <= 59.0\nmse = 11.741\nsamples = 6\nvalue = 43.943"] ;
1178 -> 1179 ;
1180 [label="X[6] <= 706.85\nmse = 3.677\nsamples = 5\nvalue = 42.626"] ;
1179 -> 1180 ;
1181 [label="X[6] <= 680.95\nmse = 0.022\nsamples = 4\nvalue = 43.582"] ;
1180 -> 1181 ;
1182 [label="X[4] <= 3.5\nmse = 0.008\nsamples = 3\nvalue = 43.51"] ;
1181 -> 1182 ;
1183 [label="mse = 0.0\nsamples = 1\nvalue = 43.38"] ;
1182 -> 1183 ;
1184 [label="X[3] <= 190.8\nmse = 0.0\nsamples = 2\nvalue = 43.575"] ;
1182 -> 1184 ;
1185 [label="mse = 0.0\nsamples = 1\nvalue = 43.58"] ;
1184 -> 1185 ;
1186 [label="mse = -0.0\nsamples = 1\nvalue = 43.57"] ;
1184 -> 1186 ;
1187 [label="mse = -0.0\nsamples = 1\nvalue = 43.8"] ;
1181 -> 1187 ;
1188 [label="mse = -0.0\nsamples = 1\nvalue = 38.8"] ;
1180 -> 1188 ;
1189 [label="mse = -0.0\nsamples = 1\nvalue = 50.53"] ;
1179 -> 1189 ;
1190 [label="X[5] <= 918.0\nmse = 0.076\nsamples = 2\nvalue = 37.445"] ;
1178 -> 1190 ;
1191 [label="mse = 0.0\nsamples = 1\nvalue = 37.17"] ;
1190 -> 1191 ;
1192 [label="mse = -0.0\nsamples = 1\nvalue = 37.72"] ;
1190 -> 1192 ;
1193 [label="X[1] <= 136.95\nmse = 35.527\nsamples = 4\nvalue = 39.34"] ;
1163 -> 1193 ;
1194 [label="X[1] <= 125.0\nmse = 0.96\nsamples = 2\nvalue = 45.26"] ;
1193 -> 1194 ;
1195 [label="mse = 0.0\nsamples = 1\nvalue = 44.28"] ;
1194 -> 1195 ;
1196 [label="mse = -0.0\nsamples = 1\nvalue = 46.24"] ;
1194 -> 1196 ;
1197 [label="mse = 0.0\nsamples = 2\nvalue = 33.42"] ;
1193 -> 1197 ;
1198 [label="mse = 0.0\nsamples = 1\nvalue = 33.04"] ;
1162 -> 1198 ;
1199 [label="X[7] <= 317.5\nmse = 4.696\nsamples = 5\nvalue = 51.91"] ;
1161 -> 1199 ;
1200 [label="X[7] <= 225.0\nmse = 1.65\nsamples = 3\nvalue = 50.46"] ;
1199 -> 1200 ;
1201 [label="X[1] <= 95.0\nmse = 1.266\nsamples = 2\nvalue = 49.825"] ;
1200 -> 1201 ;
1202 [label="mse = 0.0\nsamples = 1\nvalue = 50.95"] ;
1201 -> 1202 ;
1203 [label="mse = 0.0\nsamples = 1\nvalue = 48.7"] ;
1201 -> 1203 ;
1204 [label="mse = 0.0\nsamples = 1\nvalue = 51.73"] ;
1200 -> 1204 ;
1205 [label="X[0] <= 285.0\nmse = 1.381\nsamples = 2\nvalue = 54.085"] ;
1199 -> 1205 ;
1206 [label="mse = 0.0\nsamples = 1\nvalue = 52.91"] ;
1205 -> 1206 ;
1207 [label="mse = 0.0\nsamples = 1\nvalue = 55.26"] ;
1205 -> 1207 ;
1208 [label="X[5] <= 840.5\nmse = 0.079\nsamples = 3\nvalue = 56.813"] ;
1160 -> 1208 ;
1209 [label="X[3] <= 194.95\nmse = 0.0\nsamples = 2\nvalue = 56.615"] ;
1208 -> 1209 ;
1210 [label="mse = 0.0\nsamples = 1\nvalue = 56.62"] ;
1209 -> 1210 ;
1211 [label="mse = 0.0\nsamples = 1\nvalue = 56.61"] ;
1209 -> 1211 ;
1212 [label="mse = -0.0\nsamples = 1\nvalue = 57.21"] ;
1208 -> 1212 ;
1213 [label="X[7] <= 42.0\nmse = 7.562\nsamples = 2\nvalue = 77.45"] ;
1159 -> 1213 ;
1214 [label="mse = 0.0\nsamples = 1\nvalue = 74.7"] ;
1213 -> 1214 ;
1215 [label="mse = 0.0\nsamples = 1\nvalue = 80.2"] ;
1213 -> 1215 ;
1216 [label="X[3] <= 183.05\nmse = 170.218\nsamples = 112\nvalue = 57.173"] ;
472 -> 1216 ;
1217 [label="X[5] <= 811.5\nmse = 80.33\nsamples = 68\nvalue = 64.236"] ;
1216 -> 1217 ;
1218 [label="mse = 0.0\nsamples = 2\nvalue = 41.37"] ;
1217 -> 1218 ;
1219 [label="X[1] <= 170.1\nmse = 66.44\nsamples = 66\nvalue = 64.929"] ;
1217 -> 1219 ;
1220 [label="X[0] <= 399.4\nmse = 57.919\nsamples = 53\nvalue = 63.127"] ;
1219 -> 1220 ;
1221 [label="X[0] <= 377.25\nmse = 22.479\nsamples = 13\nvalue = 57.35"] ;
1220 -> 1221 ;
1222 [label="X[7] <= 42.0\nmse = 6.558\nsamples = 5\nvalue = 62.382"] ;
1221 -> 1222 ;
1223 [label="mse = 2.976\nsamples = 2\nvalue = 61.215"] ;
1222 -> 1223 ;
1224 [label="X[2] <= 70.5\nmse = 7.434\nsamples = 3\nvalue = 63.16"] ;
1222 -> 1224 ;
1225 [label="X[7] <= 73.5\nmse = 1.322\nsamples = 2\nvalue = 61.35"] ;
1224 -> 1225 ;
1226 [label="mse = 0.0\nsamples = 1\nvalue = 60.2"] ;
1225 -> 1226 ;
1227 [label="mse = 0.0\nsamples = 1\nvalue = 62.5"] ;
1225 -> 1227 ;
1228 [label="mse = 0.0\nsamples = 1\nvalue = 66.78"] ;
1224 -> 1228 ;
1229 [label="X[7] <= 42.0\nmse = 6.713\nsamples = 8\nvalue = 54.205"] ;
1221 -> 1229 ;
1230 [label="X[3] <= 157.95\nmse = 5.397\nsamples = 5\nvalue = 52.868"] ;
1229 -> 1230 ;
1231 [label="X[6] <= 725.0\nmse = 0.7\nsamples = 3\nvalue = 51.047"] ;
1230 -> 1231 ;
1232 [label="mse = 0.0\nsamples = 1\nvalue = 52.2"] ;
1231 -> 1232 ;
1233 [label="X[5] <= 895.05\nmse = 0.053\nsamples = 2\nvalue = 50.47"] ;
1231 -> 1233 ;
1234 [label="mse = 0.0\nsamples = 1\nvalue = 50.7"] ;
1233 -> 1234 ;
1235 [label="mse = 0.0\nsamples = 1\nvalue = 50.24"] ;
1233 -> 1235 ;
1236 [label="X[3] <= 162.5\nmse = 0.002\nsamples = 2\nvalue = 55.6"] ;
1230 -> 1236 ;
1237 [label="mse = 0.0\nsamples = 1\nvalue = 55.55"] ;
1236 -> 1237 ;
1238 [label="mse = 0.0\nsamples = 1\nvalue = 55.65"] ;
1236 -> 1238 ;
1239 [label="X[7] <= 73.5\nmse = 0.962\nsamples = 3\nvalue = 56.433"] ;
1229 -> 1239 ;
1240 [label="mse = 0.0\nsamples = 1\nvalue = 55.2"] ;
1239 -> 1240 ;
1241 [label="X[3] <= 155.9\nmse = 0.302\nsamples = 2\nvalue = 57.05"] ;
1239 -> 1241 ;
1242 [label="mse = 0.0\nsamples = 1\nvalue = 56.5"] ;
1241 -> 1242 ;
1243 [label="mse = 0.0\nsamples = 1\nvalue = 57.6"] ;
1241 -> 1243 ;
1244 [label="X[7] <= 42.0\nmse = 55.065\nsamples = 40\nvalue = 65.005"] ;
1220 -> 1244 ;
1245 [label="X[2] <= 29.5\nmse = 67.412\nsamples = 22\nvalue = 62.472"] ;
1244 -> 1245 ;
1246 [label="X[3] <= 152.25\nmse = 54.787\nsamples = 17\nvalue = 64.722"] ;
1245 -> 1246 ;
1247 [label="X[4] <= 2.0\nmse = 7.774\nsamples = 6\nvalue = 69.965"] ;
1246 -> 1247 ;
1248 [label="X[6] <= 848.0\nmse = 2.25\nsamples = 2\nvalue = 73.49"] ;
1247 -> 1248 ;
1249 [label="mse = 0.0\nsamples = 1\nvalue = 71.99"] ;
1248 -> 1249 ;
1250 [label="mse = 0.0\nsamples = 1\nvalue = 74.99"] ;
1248 -> 1250 ;
1251 [label="X[3] <= 143.7\nmse = 1.217\nsamples = 4\nvalue = 68.202"] ;
1247 -> 1251 ;
1252 [label="X[3] <= 138.9\nmse = 0.112\nsamples = 2\nvalue = 67.235"] ;
1251 -> 1252 ;
1253 [label="mse = 0.0\nsamples = 1\nvalue = 66.9"] ;
1252 -> 1253 ;
1254 [label="mse = 0.0\nsamples = 1\nvalue = 67.57"] ;
1252 -> 1254 ;
1255 [label="X[4] <= 10.2\nmse = 0.449\nsamples = 2\nvalue = 69.17"] ;
1251 -> 1255 ;
1256 [label="mse = 0.0\nsamples = 1\nvalue = 69.84"] ;
1255 -> 1256 ;
1257 [label="mse = -0.0\nsamples = 1\nvalue = 68.5"] ;
1255 -> 1257 ;
1258 [label="X[0] <= 530.0\nmse = 57.256\nsamples = 11\nvalue = 61.862"] ;
1246 -> 1258 ;
1259 [label="X[5] <= 862.5\nmse = 25.232\nsamples = 8\nvalue = 58.911"] ;
1258 -> 1259 ;
1260 [label="X[1] <= 112.55\nmse = 10.272\nsamples = 5\nvalue = 61.89"] ;
1259 -> 1260 ;
1261 [label="X[0] <= 472.5\nmse = 0.0\nsamples = 4\nvalue = 60.288"] ;
1260 -> 1261 ;
1262 [label="mse = 0.0\nsamples = 3\nvalue = 60.29"] ;
1261 -> 1262 ;
1263 [label="mse = 0.0\nsamples = 1\nvalue = 60.28"] ;
1261 -> 1263 ;
1264 [label="mse = -0.0\nsamples = 1\nvalue = 68.3"] ;
1260 -> 1264 ;
1265 [label="X[6] <= 678.5\nmse = 10.731\nsamples = 3\nvalue = 53.947"] ;
1259 -> 1265 ;
1266 [label="mse = 0.0\nsamples = 1\nvalue = 58.52"] ;
1265 -> 1266 ;
1267 [label="X[0] <= 462.5\nmse = 0.41\nsamples = 2\nvalue = 51.66"] ;
1265 -> 1267 ;
1268 [label="mse = 0.0\nsamples = 1\nvalue = 52.3"] ;
1267 -> 1268 ;
1269 [label="mse = 0.0\nsamples = 1\nvalue = 51.02"] ;
1267 -> 1269 ;
1270 [label="X[5] <= 1047.5\nmse = 57.53\nsamples = 3\nvalue = 69.73"] ;
1258 -> 1270 ;
1271 [label="mse = 0.0\nsamples = 1\nvalue = 79.99"] ;
1270 -> 1271 ;
1272 [label="X[5] <= 1090.0\nmse = 7.344\nsamples = 2\nvalue = 64.6"] ;
1270 -> 1272 ;
1273 [label="mse = 0.0\nsamples = 1\nvalue = 61.89"] ;
1272 -> 1273 ;
1274 [label="mse = 0.0\nsamples = 1\nvalue = 67.31"] ;
1272 -> 1274 ;
1275 [label="X[4] <= 9.4\nmse = 34.634\nsamples = 5\nvalue = 54.824"] ;
1245 -> 1275 ;
1276 [label="X[0] <= 449.5\nmse = 5.808\nsamples = 2\nvalue = 59.64"] ;
1275 -> 1276 ;
1277 [label="mse = 0.0\nsamples = 1\nvalue = 62.05"] ;
1276 -> 1277 ;
1278 [label="mse = -0.0\nsamples = 1\nvalue = 57.23"] ;
1276 -> 1278 ;
1279 [label="X[4] <= 10.95\nmse = 28.08\nsamples = 3\nvalue = 51.613"] ;
1275 -> 1279 ;
1280 [label="mse = 0.0\nsamples = 1\nvalue = 53.39"] ;
1279 -> 1280 ;
1281 [label="mse = 39.753\nsamples = 2\nvalue = 50.725"] ;
1279 -> 1281 ;
1282 [label="X[4] <= 11.5\nmse = 22.556\nsamples = 18\nvalue = 68.1"] ;
1244 -> 1282 ;
1283 [label="X[4] <= 8.7\nmse = 8.847\nsamples = 8\nvalue = 72.129"] ;
1282 -> 1283 ;
1284 [label="X[3] <= 175.5\nmse = 6.063\nsamples = 3\nvalue = 68.993"] ;
1283 -> 1284 ;
1285 [label="X[7] <= 135.0\nmse = 0.96\nsamples = 2\nvalue = 70.64"] ;
1284 -> 1285 ;
1286 [label="mse = 0.0\nsamples = 1\nvalue = 69.66"] ;
1285 -> 1286 ;
1287 [label="mse = 0.0\nsamples = 1\nvalue = 71.62"] ;
1285 -> 1287 ;
1288 [label="mse = 0.0\nsamples = 1\nvalue = 65.7"] ;
1284 -> 1288 ;
1289 [label="X[7] <= 73.5\nmse = 1.079\nsamples = 5\nvalue = 74.01"] ;
1283 -> 1289 ;
1290 [label="X[1] <= 106.75\nmse = 0.738\nsamples = 3\nvalue = 73.453"] ;
1289 -> 1290 ;
1291 [label="X[5] <= 884.4\nmse = 0.109\nsamples = 2\nvalue = 74.03"] ;
1290 -> 1291 ;
1292 [label="mse = 0.0\nsamples = 1\nvalue = 74.36"] ;
1291 -> 1292 ;
1293 [label="mse = 0.0\nsamples = 1\nvalue = 73.7"] ;
1291 -> 1293 ;
1294 [label="mse = -0.0\nsamples = 1\nvalue = 72.3"] ;
1290 -> 1294 ;
1295 [label="X[6] <= 816.8\nmse = 0.429\nsamples = 2\nvalue = 74.845"] ;
1289 -> 1295 ;
1296 [label="mse = 0.0\nsamples = 1\nvalue = 74.19"] ;
1295 -> 1296 ;
1297 [label="mse = 0.0\nsamples = 1\nvalue = 75.5"] ;
1295 -> 1297 ;
1298 [label="X[3] <= 139.8\nmse = 10.15\nsamples = 10\nvalue = 64.877"] ;
1282 -> 1298 ;
1299 [label="X[7] <= 73.5\nmse = 0.49\nsamples = 2\nvalue = 70.0"] ;
1298 -> 1299 ;
1300 [label="mse = 0.0\nsamples = 1\nvalue = 69.3"] ;
1299 -> 1300 ;
1301 [label="mse = -0.0\nsamples = 1\nvalue = 70.7"] ;
1299 -> 1301 ;
1302 [label="X[1] <= 65.15\nmse = 4.364\nsamples = 8\nvalue = 63.596"] ;
1298 -> 1302 ;
1303 [label="X[5] <= 909.55\nmse = 0.874\nsamples = 2\nvalue = 60.135"] ;
1302 -> 1303 ;
1304 [label="mse = 0.0\nsamples = 1\nvalue = 59.2"] ;
1303 -> 1304 ;
1305 [label="mse = -0.0\nsamples = 1\nvalue = 61.07"] ;
1303 -> 1305 ;
