digraph Tree {
node [shape=box] ;
0 [label="X[7] <= 38.813\nmse = 282.451\nsamples = 772\nvalue = 35.504"] ;
1 [label="X[0] <= 289.738\nmse = 240.617\nsamples = 561\nvalue = 30.807"] ;
0 -> 1 [labeldistance=2.5, labelangle=45, headlabel="True"] ;
2 [label="X[7] <= 16.288\nmse = 137.693\nsamples = 323\nvalue = 24.622"] ;
1 -> 2 ;
3 [label="X[7] <= 12.657\nmse = 79.771\nsamples = 140\nvalue = 17.702"] ;
2 -> 3 ;
4 [label="mse = 34.284\nsamples = 100\nvalue = 13.665"] ;
3 -> 4 ;
5 [label="mse = 50.874\nsamples = 40\nvalue = 27.795"] ;
3 -> 5 ;
6 [label="X[0] <= 252.803\nmse = 117.354\nsamples = 183\nvalue = 29.916"] ;
2 -> 6 ;
7 [label="mse = 92.482\nsamples = 150\nvalue = 27.568"] ;
6 -> 7 ;
8 [label="mse = 91.496\nsamples = 33\nvalue = 40.586"] ;
6 -> 8 ;
9 [label="X[7] <= 16.599\nmse = 257.903\nsamples = 238\nvalue = 39.202"] ;
1 -> 9 ;
10 [label="X[0] <= 386.289\nmse = 174.532\nsamples = 108\nvalue = 30.167"] ;
9 -> 10 ;
11 [label="mse = 115.9\nsamples = 58\nvalue = 23.046"] ;
10 -> 11 ;
12 [label="mse = 115.463\nsamples = 50\nvalue = 38.429"] ;
10 -> 12 ;
13 [label="X[3] <= 184.369\nmse = 203.019\nsamples = 130\nvalue = 46.708"] ;
9 -> 13 ;
14 [label="mse = 153.18\nsamples = 68\nvalue = 54.719"] ;
13 -> 14 ;
15 [label="mse = 110.082\nsamples = 62\nvalue = 37.921"] ;
13 -> 15 ;
16 [label="X[3] <= 174.373\nmse = 179.145\nsamples = 211\nvalue = 47.989"] ;
0 -> 16 [labeldistance=2.5, labelangle=-45, headlabel="False"] ;
17 [label="X[2] <= 96.17\nmse = 157.649\nsamples = 83\nvalue = 55.417"] ;
16 -> 17 ;
18 [label="X[2] <= 81.174\nmse = 61.98\nsamples = 32\nvalue = 66.52"] ;
17 -> 18 ;
19 [label="mse = 47.405\nsamples = 30\nvalue = 67.596"] ;
18 -> 19 ;
20 [label="mse = 2.756\nsamples = 2\nvalue = 50.38"] ;
18 -> 20 ;
21 [label="X[5] <= 952.546\nmse = 91.79\nsamples = 51\nvalue = 48.45"] ;
17 -> 21 ;
22 [label="mse = 14.364\nsamples = 2\nvalue = 70.57"] ;
21 -> 22 ;
23 [label="mse = 74.163\nsamples = 49\nvalue = 47.547"] ;
21 -> 23 ;
24 [label="X[0] <= 353.607\nmse = 134.121\nsamples = 128\nvalue = 43.173"] ;
16 -> 24 ;
25 [label="X[6] <= 759.452\nmse = 109.218\nsamples = 103\nvalue = 40.817"] ;
24 -> 25 ;
26 [label="mse = 98.245\nsamples = 42\nvalue = 48.304"] ;
25 -> 26 ;
27 [label="mse = 51.619\nsamples = 61\nvalue = 35.663"] ;
25 -> 27 ;
28 [label="X[6] <= 612.679\nmse = 119.638\nsamples = 25\nvalue = 52.88"] ;
24 -> 28 ;
29 [label="mse = 0.541\nsamples = 7\nvalue = 41.78"] ;
28 -> 29 ;
30 [label="mse = 99.405\nsamples = 18\nvalue = 57.197"] ;
28 -> 30 ;
}